-0.4689983428
0.3187904358
0.022550717
0.04414599016
-0.01927017048
-0.004854412749
0.01605813578
-0.6914697289
-0.2118154019
0.02495211363
0.01378827821
0.02076477744
-0.1651598066
-0.02504920587
0.01658574119
-0.1268039793
0.06453798711
0.0277813971
0.1010838449
0.1340605617
0.0771381557
0.008044668473
0.05466896668
0.1191781387
0.03618302569
0.3650874197
0.3641604781
0.387409538
0.2089369148
0.08264424652
0.4070552886
0.1563224941
2.976278782
4.402853966
1.1904459
1.583969355
4.324511051
2.000400543
3.898756027
5.810628414
3.417525291
3.766004086
3.684412003
3.917993784
2.853000164
2.423823595
3.958352566
2.24903965
-2.431961536
-6.111609459
0.7475060225
0.9132954478
-5.006910324
2.268230915
-5.281415462
-8.125116348
-2.645823717
0.9798221588
0.9736670256
1.214933634
0.3352364898
-0.3705308735
1.732531548
1.182354808
-2.305123091
-1.593943357
-2.501806736
-3.558292866
-1.588680506
2.053781509
-12.66124153
-9.301914215
-3.293872356
4.120619774
-3.631980658
1.475731134
7.792904377
-3.911514282
-4.859521389
-3.058525085
-4.123823643
-4.392699718
1.384442449
-3.856256008
-1.469174504
-7.878032207
-6.58305645
-6.265606403
-4.012495995
-2.231863737
-7.044843197
-4.415023804
-5.550155163
-1.796613574
-2.850558758
-2.904412031
12.38287258
55.41663361
27.12096405
51.48242569
31.0470829
27.92872429
185.1403961
30.28352547
37.70580673
41.46384048
61.5275383
31.85512733
41.01189041
54.31557083
116.4746857
33.78158569
77.26013184
72.42677307
15.31214046
123.5200119
23.78891754
102.3935623
22.58463287
60.20079803
53.80503845
95.81829071
125.4860916
46.92398834
97.42767334
82.42436218
91.0200119
8.260180473
2.288427114
1.706950665
3.661521196
4.40514183
3.847068787
1.630055666
4.841686726
1.904309988
3.026190758
1.621002674
4.304929733
1.255594969
1.116787195
4.42741251
5.533206463
3.333620071
5.224106789
4.243648052
1.637461424
5.057965279
1.127249241
4.914162636
2.338159561
3.178676605
4.674982071
5.593931198
6.208632946
4.033637524
4.221055984
3.905968189
4.715706825
1.135287523
-1.202041745
1.23712492
-1.732700109
-2.110948086
-1.385611296
0.8328359127
-0.2888924181
1.278936267
-1.250703335
1.311490536
-0.9080950022
0.7558114529
-0.5235068798
-1.480453253
-0.04268771037
0.01722267643
-2.085590124
0.6007535458
1.012423754
0.2432415485
0.4490478039
-0.3225849867
-0.6677461267
-0.8695604801
-2.017173052
-0.7638129592
-1.237095833
-1.286887407
-1.388540745
0.8880073428
-1.746813059
0.2694570124
-3.730391741
-2.531908989
-2.836243391
-4.925880432
-2.425871134
-2.585400581
-2.592978477
-3.555486917
-3.601295471
-9.393235207
-1.200212359
-2.537532806
-7.760341167
-4.269009113
-0.9563909769
-4.146583557
-2.452501535
-8.272110939
-2.881450653
-0.7587161064
-3.905162811
6.577459812
-3.086498976
-1.948104858
-0.6543601155
-4.551790237
-2.37778759
-1.889932871
-3.543481588
-11.43662071
-3.215886831
-0.7053336501
-0.3000896573
-3.99468112
-1.705250621
3.025220871
-3.381047726
-2.350837708
-5.72525835
-1.854037881
-2.804309368
-2.183742046
-1.796145797
-4.725415707
-2.771622181
-3.350986004
-3.109850168
-3.317528486
-6.422223091
-1.373867869
-1.030289531
-2.391246557
-7.16078949
-1.156219959
-2.377826452
0.7625367641
-0.9935363531
-1.374896884
-1.175567627
-3.227190256
2.245927811
-0.3958246112
-3.130635977
0.663813591
14.48795128
10.8370676
10.39666748
8.487847328
17.94719315
14.21156597
7.383296013
17.52417374
10.03687
8.845028877
11.05436707
5.298717499
5.019591808
8.598795891
4.046704769
13.92912769
10.65588188
30.25070953
9.272488594
5.678026199
8.320263863
10.59759235
15.36026859
4.719574451
15.04859352
6.437251568
15.20659828
2.103800535
13.26646042
11.68149185
7.91353035
9.23965168
15.58294487
12.30800343
9.876475334
4.59002924
11.19246387
15.31818962
13.17521191
8.643863678
8.028276443
9.32824707
2.316457987
9.178021431
9.339584351
5.580189705
19.90754509
6.473187923
7.640976906
6.46538496
14.72110748
6.208754539
11.79122829
5.364609241
7.109879494
5.379790306
5.634836674
2.195681334
8.095722198
4.950153351
24.31767845
6.715018749
7.305775642
8.912233353
3.735927105
2.495682001
3.114473581
1.467359543
2.943979502
3.334782124
2.022805452
3.2820158
3.29914856
1.750554323
2.609695911
2.116264343
3.320689201
3.861134529
2.000159979
1.957149267
2.665517092
4.410920143
2.629142761
2.207714319
3.546596527
0.9556798339
4.891668797
1.877165079
3.334319353
1.54332602
3.343027115
1.620723844
2.80546999
2.770597935
1.957098722
1.432384968
3.359796047
2.739677668
2.739265203
2.41072607
3.158049345
3.18393755
2.794672251
2.069051981
2.76466918
1.219275713
1.711271763
2.783089161
2.754072428
1.969245195
4.828857422
2.510154247
1.480294347
1.815952063
3.404956341
2.658489943
1.810607672
2.001153708
2.655678272
2.24071455
1.795261383
1.692919135
2.260536909
2.048621655
3.656929016
2.911228418
2.088562965
1.57986629
-1.366577268
-1.170707107
-1.658825397
2.350564718
-0.1590215266
-0.1003821492
-1.012233734
0.8456148505
-1.437918901
0.7166907191
-0.3228492439
-0.09711478651
-3.424692869
-2.874969482
-0.00775303226
0.4091264904
-1.166388988
0.08885553479
-1.35619688
-1.226813912
-1.808048964
1.019331694
-3.062385321
-0.002975971904
-0.358115226
0.5095584393
0.2970532179
1.135018826
-1.386517525
0.2383913696
-0.9555871487
-0.5534049273
-0.6435476542
-0.2632008791
-1.271600366
-3.87319684
-0.5853527188
0.08110515773
-0.2205684334
-0.9947031736
-1.565403461
-0.2284910977
1.026617765
-0.7551127672
-1.224651456
-0.8483556509
-1.608530045
-1.366184235
1.336077571
-0.01449277904
-0.5515664816
-2.00235033
1.132199407
-1.350091219
-1.242348552
-1.095979333
-0.1807415932
1.305707574
-1.081165075
-0.8898636103
0.1647960544
-4.65484333
-1.186872959
0.8305706382
-3.001550436
-11.00490284
-8.919631004
-4.837121964
-2.505852461
-5.213056087
-4.245268822
-1.454852104
-2.506929636
-1.935818672
-2.619816542
-3.00678277
1.999699473
-5.654053688
-1.852313161
-5.586593628
-4.680497169
-4.006463528
-3.954699516
-2.297967196
-6.449888229
2.938073635
-0.7083411217
-2.284638405
-1.997852683
-1.59057951
-3.280587196
-1.949774504
-1.763363123
-0.9590792656
-3.942470789
-3.351031303
-3.401323795
-2.64478898
-3.070065975
-0.0633014217
0.2747577131
-4.155612946
-4.791210175
-6.58728838
-3.948377609
-2.368744612
-2.160848141
-1.676248193
-2.390394926
-4.023122311
-2.189728022
-3.154439211
-2.516682863
-2.454455376
-2.952839136
-1.322015285
-2.260514021
1.568276167
-1.272101521
-9.645209312
-3.976005077
-2.61456275
-1.795372248
-3.895042181
3.392076731
-3.440377712
-2.722733259
-2.351951838
-1.212507606
-2.46538496
-2.08665061
-1.695771217
-2.854697227
-2.513029337
-0.5040009022
-4.554728031
-3.115673304
-6.15194416
-0.5796101093
5.856529713
-3.731222391
-2.287351608
-0.3534003198
-1.566381216
-2.753966331
-2.998375177
1.148021936
-2.669026136
-2.661639929
-10.91359806
-3.069100142
-4.018125534
-2.445058823
-2.725312233
-1.210085511
-2.19362545
0.01246538106
-3.640203476
-3.220830202
-1.697083473
-2.567044258
-1.153325319
-8.092026711
-2.104453802
-4.835735798
4.460469723
-1.309521198
-2.136764765
-3.84188652
-4.785475731
-1.956019163
-2.357380152
-5.060281754
-0.7292206883
-0.8410838246
-3.354417801
-4.330841541
-3.93542099
-3.979971409
0.1420798153
-4.345648289
4.143216133
-3.723802328
-2.96830678
-1.903868198
-2.784723997
-3.104450941
-3.535009861
-2.36080718
-5.914639473
-6.087526798
-5.449621201
11.60394478
23.83563614
15.4762373
8.475008965
5.412142754
7.63272953
9.852657318
18.85663605
7.108159065
7.962659836
7.906302452
5.618859291
12.68947697
4.424075127
6.638250828
15.54148579
13.08416748
7.40856266
6.693441391
10.12559414
7.881053925
6.347448349
4.378973007
6.584290504
7.492382526
5.733979225
11.74198723
9.864318848
4.194067478
6.26605463
4.485188961
9.54541111
8.822399139
6.730498791
6.368726254
5.333624363
7.998235703
7.900940418
7.324208736
22.36785507
6.710720062
6.779650688
6.517282963
9.594200134
5.888962269
9.501559258
5.907567501
10.58353901
8.025039673
7.92102623
7.215135098
6.916707516
6.694726944
8.597106934
9.557907104
7.331051826
8.139907837
5.706253052
6.500668049
4.749362469
12.301301
6.832046509
8.342727661
3.991019487
5.197648048
8.119505882
8.375
6.281643867
8.167139053
5.439145088
5.538931847
9.235854149
22.68204689
10.32933712
10.41844273
15.93697357
7.687673092
6.550492764
9.658124924
14.08066177
6.813519001
14.67136097
9.413207054
4.798903465
5.606028557
6.771270275
10.56217957
5.573643684
4.44465971
11.11879158
5.174953461
9.669071198
9.403664589
15.62454796
9.628796577
7.55979681
8.392025948
5.469238281
19.87435532
14.11815166
9.165850639
5.20106554
11.40727615
3.773730278
14.88638401
10.4884119
6.905593395
7.895483971
9.17466259
8.499073029
3.924471378
7.878232002
17.71644592
7.914141655
8.77234745
14.56272125
10.80831528
8.589180946
5.665000916
8.088249207
9.896475792
9.276122093
16.52830315
15.53908634
5.91118288
6.967278481
7.51372385
6.258602142
2.727868795
2.664654732
2.235755682
2.440675735
1.746208668
2.107254744
2.820559978
3.765480042
2.261350393
2.967394352
2.311797619
2.288815022
2.644546986
2.885530949
2.573534489
2.762265444
2.034737825
1.615152597
1.893294096
2.469837189
1.176603794
2.766454697
2.631997108
2.329322815
2.29014349
2.35064435
3.109688997
3.148969173
1.006704092
1.948910475
2.104012012
2.309761524
2.188926697
2.209512472
2.306458473
1.342742562
2.599351883
1.95729208
2.781588316
3.215113878
2.089587212
1.763825178
2.306797028
2.131739378
2.349851608
2.100933313
1.692396641
2.508174658
2.466134548
2.380692959
2.127477884
2.879302979
1.967109919
1.289824724
1.427700877
2.028799057
1.956098795
1.835518122
2.708580017
2.156590939
2.740179539
2.982920408
3.001401424
1.339964747
1.29756701
2.274388313
1.957698822
2.692066669
2.27976656
2.155781746
2.147768497
2.149549723
2.586148024
1.670761585
2.129558802
1.671275139
2.01045084
1.383614779
2.430886984
2.162261248
1.80956769
3.418305874
1.401120663
1.685572505
2.252175093
2.380794764
3.604996204
2.839620829
1.995603323
3.00082159
2.620137691
2.215859652
2.067595243
2.68851757
2.500776529
2.03773427
2.418614388
2.63657093
2.274716854
2.071310997
2.42140913
1.701264858
3.032664537
1.584256053
2.889559746
3.150894642
2.124130011
2.349088907
2.063186169
3.714866638
1.445470095
2.400974751
2.440191269
2.367091179
1.757734656
1.561406851
2.448390484
2.733039379
1.653800249
2.285114288
2.085551977
2.325636625
2.878619432
1.814869523
2.460344315
1.84567523
2.42986393
1.854163885
-1.555443525
-0.6375551224
-0.3012789488
-1.416360378
-0.9625889063
-1.588450193
-1.867115498
-1.061875343
-1.077468038
-2.487053871
-1.792444944
-1.775575638
-1.816220045
-3.890776396
-1.343250751
-0.4241412282
-0.4025256634
-0.9312165976
-1.175032735
-0.5641723871
0.07624346763
-2.570530891
-5.68723774
-1.601568103
-1.469062328
-1.963857889
-1.691525221
-2.795451164
-0.4024116397
-0.8535901308
-1.505893111
-0.9965370297
-1.145714164
-1.67391324
-1.649168491
-1.576304436
-2.677183628
-0.5532978773
-1.399697542
-0.9731355309
-1.6233778
-0.7008740306
-1.886254191
-0.3267766535
-1.794464111
-1.387491822
-1.767166138
-0.5373963118
-1.447749019
-0.6575728655
-1.2779603
-2.627175808
-1.220553041
-1.483928561
-1.186540484
-2.157052279
-1.434174418
-0.9923036098
-2.479348898
-2.178927898
-0.9583009481
-4.663952827
-2.936466694
-0.9715098739
-0.5411899686
-2.152258635
-0.5219367743
-2.564719439
-1.148786545
-2.157912254
-3.305260181
-0.8768652678
-0.4370253682
-1.115656853
-0.7868447304
-1.101560593
-1.354780436
-0.5810810328
-1.25825429
0.4893336892
-1.14729023
-1.157401443
-1.315818667
-1.272105217
-2.194228172
-1.549752951
-2.908543587
-5.055009365
-1.290082097
-2.268958092
-2.614767313
-0.6406951547
-0.2282662541
0.3215427399
-1.208999872
-1.226820827
-1.118596435
-2.195773363
0.03403591737
0.2629606426
-1.408993602
-0.8898258209
-1.248376369
-0.7240131497
-0.5563198328
-1.15067637
-1.054434538
-1.515912533
-0.7928365469
-3.014451265
-1.245381117
-1.251180291
-0.04036535695
-1.920094728
-1.306445956
0.7200722098
-1.534861922
-2.699932814
-1.908164263
-1.389401197
-0.5752782226
-1.071677685
-0.3864686489
0.3649487495
-2.257516384
-1.269621968
-2.343578339
-0.4369800687
-2.22169137
-1.682716012
-1.779450774
-1.268543959
-2.423111439
-2.477921009
-2.226382971
-3.092217684
-1.992228746
0.8758714199
-1.033174276
-2.313702822
-2.047986269
-2.707858324
-1.947072148
-1.550559521
-0.4660875797
-2.401766777
-0.8615300059
0.2328246385
-3.655950308
-0.2968669236
-1.687182307
-2.92442894
-0.08687125891
-1.630963206
-1.333318233
-1.218204737
-1.21268332
-3.275005102
-1.191341162
-5.444035053
0.4783763885
-0.7133334875
-3.294305086
-3.796732187
-1.121406078
-1.175305605
-1.559198141
-2.651719093
-3.379880667
-2.473371029
-1.703048229
-1.445992589
-2.191566706
-0.7782543302
-1.455779076
-2.849125624
-1.876407504
-1.631118298
-2.390638113
-1.374088287
-1.360045075
-1.461632729
-3.020988464
-1.143468261
-2.24704051
-0.7527859211
-0.1141457409
-1.844670653
-1.544160247
-3.075143576
6.400209904
-1.246040702
-0.9962259531
-1.915704489
-2.551282406
-1.325725555
-0.526602447
-3.090199709
-1.281392455
-2.00494647
-1.276466846
2.559684753
-2.608204842
-0.6486742496
0.6961289644
-0.7123463154
-1.336288095
-2.620697975
-1.970627666
-3.324897766
-2.551516533
-0.5877804756
-1.471292973
-1.90166676
-0.982904911
-3.703863382
-2.677803278
-0.5297244787
-2.091371775
-1.23463881
-1.916864634
-1.162698388
-5.674071312
-1.101918578
-1.51480031
-0.8340507746
-0.2562770247
-1.769474864
-2.174959183
-1.91262269
-0.9204499125
-3.000044107
-1.378142238
-1.840510607
-1.636996031
-2.418619871
-1.267172337
-2.496538877
-0.2169072777
0.1512732357
-0.963527143
-0.1447497755
-2.477517843
-4.470507145
-1.859905601
-1.418003798
-1.059087992
-2.606904268
-2.190229416
-2.204532862
-1.803322554
-1.086550117
-2.11422658
-1.448431849
-2.800923347
-2.6661973
-2.049318552
-2.905637503
-1.293552279
-1.577079535
-0.663872242
-2.550319195
-0.8464534879
-0.8513982296
-1.265156865
-2.15210557
-1.907265544
-2.323161364
-3.909263611
-0.8569374084
-0.02220090851
1.212958336
-1.5750736
-1.561592221
-1.682279825
-1.56850493
-1.764418602
-4.246407509
-1.972114444
-3.148857117
-2.633729935
-1.965480924
-1.346106768
0.5241647363
-2.254190683
0.2787522376
-1.388567686
1.664554715
-1.154102325
-1.062298656
-3.017885923
-1.413569212
-1.333262205
-1.333153844
-2.495010376
-1.412225604
-1.979596615
-2.792529583
-1.743710399
3.772328615
-3.583045959
-0.3154450357
-1.954907656
-3.250741243
-1.48533082
-1.480732679
-0.7913840413
-0.8071199656
-1.899190187
-1.597894788
-0.8962556124
-3.782216549
-1.323286295
-1.318318963
-1.428019524
-0.6420343518
-1.759223461
-2.933086395
-1.164366961
-1.540705562
1.181884646
0.7431372404
-1.077237129
-1.694997668
-2.370545387
-1.387985587
-1.22081697
-0.9312624335
-1.870280743
-3.441445827
-1.355682611
-2.192833185
-1.78666842
-1.43235147
-1.402577162
-2.172896147
-3.261143684
-1.009362817
-1.798193216
-2.232601881
-3.053045034
-2.158452988
-2.974555969
-1.280939102
-3.669433355
-2.152557135
-1.372138739
-1.904686213
-1.836935997
-2.928893566
-1.297157049
-2.128114462
-0.6443637013
-3.213846207
-2.742128372
-2.040417194
-1.640641093
-2.80051589
-1.994851828
-1.755657792
-1.583085418
-2.056191206
-1.864798307
-3.653512716
-4.40795517
-1.645070434
-2.436731339
1.171195984
-3.072298765
-1.432647705
-2.786710501
-1.231941581
-1.230778217
-2.198442459
0.6743533015
-0.8321986198
-2.461637974
-1.52097857
-0.910900414
-1.181012154
-1.712821245
-2.105931282
-1.35887289
-1.189117312
3.935244322
4.142677307
7.131587982
3.888318062
4.268095016
4.040553093
3.341141701
4.781096935
4.164669037
5.641958237
7.547959805
5.367460251
12.81175232
4.994664192
5.363272667
3.189717293
4.555675983
7.137764931
5.744951725
4.735260487
4.943818092
4.908423901
4.082903862
6.574039459
5.0888381
3.57742095
4.287454128
7.196731567
3.535259962
5.833845139
3.809348345
8.734897614
4.092389107
4.709495068
6.020490646
3.806142807
4.403577805
3.854027033
6.51715374
5.288721085
4.664486885
4.287487507
4.582067966
4.409478188
4.669959545
3.569288015
4.707438469
5.628349304
4.472501278
4.094076633
3.898257017
6.489705563
6.825609684
3.344757557
14.46726704
5.941439152
7.457537174
6.109939575
6.374118805
5.184212685
4.996711254
5.428310871
9.786959648
4.117854118
5.696484566
5.813918591
5.901688099
3.101939201
5.433566093
4.106328487
3.638498545
4.298175335
5.14206171
3.529191017
4.747338772
3.272864342
9.037712097
4.251190186
4.661585808
3.905874491
9.841482162
8.429512978
3.441038609
5.444885731
3.776170254
4.343394279
2.913982868
6.281564713
4.325194836
4.302186966
6.897508144
4.957968235
6.932866573
4.297664642
8.395817757
3.968675137
6.078345776
3.927728653
8.399069786
4.889623642
3.273079872
2.894569397
2.87227273
8.744460106
4.833451271
5.752267838
5.259428978
3.720600367
4.52122879
8.546964645
5.073527813
6.272720337
4.436440468
3.111229897
12.26042175
6.751893044
4.208357334
3.777384996
5.16272974
6.430969715
4.592479706
4.934075356
5.321732044
4.598138809
3.74109602
5.279837132
6.435059547
6.687521935
4.850831509
4.087892532
5.22938633
5.391004086
4.262816906
4.179101944
4.72889185
5.266307354
4.025503159
4.411352634
4.538136482
4.441318035
8.274050713
4.017727852
5.364094734
3.561222792
2.984596968
4.577187538
4.534656525
4.500121117
6.995392799
14.44425106
3.894819498
3.947305679
3.649885416
4.878691196
5.195590496
5.563358784
3.426604271
4.927978039
3.39057827
7.240971565
4.120886803
3.880638838
4.441823483
3.323845625
3.208322763
6.792963028
4.987491608
5.258909225
4.967280865
4.284363747
7.248408318
6.500658989
4.926974297
7.61297369
4.334970474
7.091219902
3.969457626
3.482859373
9.367917061
5.14253521
5.455376148
3.639613867
3.006536007
4.445370197
4.729347229
4.627911568
5.785867214
4.391624451
3.794447184
4.621097088
3.600278139
3.82899332
6.552000523
10.01892662
5.068284988
3.642728329
5.354902744
3.485823154
4.277535915
3.744335413
4.047177792
5.197122097
3.365347147
5.681987762
3.900018454
4.071223259
5.346667767
7.528540611
5.748572826
3.40632534
3.80585742
2.909586668
6.195236206
4.28151083
8.595948219
2.982559443
7.855125427
4.780691147
3.85391736
17.65314865
5.911006927
6.136126518
2.54033494
4.451991081
5.728887558
7.088112354
6.710538387
4.94432497
4.938961983
4.92546463
5.258529663
4.310992718
4.943536758
3.639815807
7.583153248
5.517988682
8.09651947
5.342410564
11.04138184
5.605448723
4.982831955
3.796938181
5.241119385
5.364145279
4.5865798
5.628486633
6.596257687
3.609699249
14.27497482
5.267417908
4.323805332
4.553698063
7.041320324
4.981548309
3.476850986
7.457473278
1.942677975
1.739673138
2.678787708
1.66995585
1.61470592
2.275107622
1.425125241
1.774106979
1.790187001
2.041334391
2.029508114
2.007472038
2.161452532
1.706420779
2.440347195
1.722866654
1.601753235
1.777301908
2.473249912
1.632614613
1.639271498
1.573109269
1.642332911
1.780917287
2.230805874
1.564228535
2.097812653
1.662643433
2.237138271
1.688685656
2.036920547
1.875008583
1.562747359
1.522016048
2.624769449
1.859769702
1.615969419
2.16297555
1.574795961
1.847277522
1.710092545
1.841219544
1.551594734
2.029589653
2.052494049
1.533654809
2.343575954
1.509470701
1.603004098
1.665235281
2.005230188
2.095654964
2.175498486
1.345040083
2.435044527
1.857293725
1.801574588
1.614820719
2.128334045
1.549562931
2.618332624
2.471824169
1.959879637
2.12882781
1.990803599
2.550092936
2.190439224
2.170050383
1.927326322
2.25228548
1.52926302
2.184698582
1.831813574
1.611680031
2.125054359
1.604332924
2.380063295
1.717442751
1.806416035
2.222422123
2.516420603
2.684056997
1.467603803
2.244395494
1.517337799
1.927048802
1.58252728
2.783001184
1.790926933
1.668732405
1.99850142
1.829676747
1.476986408
1.996506333
1.685668111
2.193849087
2.68073082
1.666068435
2.765943766
1.919664025
1.620744586
1.537014365
1.235220551
1.886987448
1.532675266
1.611096382
1.588750601
1.421959162
1.624408007
1.841481924
1.698901296
2.229917049
1.742378592
1.273194075
2.325500727
1.818746924
1.409197569
2.333658934
2.079115629
2.433453798
2.030108929
1.603042603
1.700810671
1.54922092
2.398597717
2.354124546
1.762530088
2.677618027
1.957319736
1.708894968
1.548972607
2.320639849
1.667066336
1.651998043
2.433609486
2.236461401
1.865466833
1.778108597
1.28022027
2.049396992
1.933409333
1.945321321
1.994760752
2.402331829
1.657649159
1.8983109
1.531248569
1.993781567
2.70859313
2.621889591
1.238425493
1.784304023
1.479099393
2.389592409
1.406226158
2.122943878
1.558121085
1.940218806
1.535989404
2.251590967
2.288470745
1.587928534
1.334717631
2.185058117
1.556589127
1.787555099
1.887637734
1.67467165
1.87126255
2.119773388
2.036589861
2.11218977
2.598466396
2.964258671
1.708557606
2.026949406
2.593640804
2.069241047
2.208622932
2.245597839
1.936243415
1.524775624
1.764875889
1.76083827
2.425290346
2.42403245
2.203145266
2.033012152
1.98222971
2.082690001
2.262535572
1.321263552
1.667132139
1.851789951
2.319008112
1.830737352
1.634493113
2.185183048
1.346942663
1.479251027
2.303152323
2.28113246
1.842118263
1.805728316
1.212981224
2.510904312
1.82031703
2.085158587
1.585302353
1.57599318
1.671278358
1.277752757
1.86139214
1.864946365
1.740437865
1.469547391
1.343080282
1.473783851
2.744319439
2.567973137
1.977830052
2.216700554
1.304639339
1.61961937
1.803592086
2.045792818
1.778774858
2.095861197
1.661399722
1.645434737
1.778375506
1.744939804
1.79272151
1.829370141
1.904390812
2.24770546
1.827719569
2.069283247
2.792815685
2.332318783
1.467104197
2.226735115
1.915806174
1.755631685
2.102368832
1.74717319
2.63575983
1.398609161
1.879686594
1.651943803
1.292223692
1.893607497
1.477078915
1.371248126
1.641129136
2.029540062
-2.6317029
-2.224972725
-1.333562613
-1.728394508
-1.2193501
-2.661798477
-1.563362837
-1.867905378
-2.216304302
-1.289415717
-1.560447335
-2.906379223
-0.8896970153
-1.726300597
-2.427473068
-2.383528233
-1.810779333
-1.41879487
-2.318083763
-1.75492847
-1.604525924
-1.026447058
-1.116896868
-1.383523941
-2.676932573
-1.377069592
-2.764045
-0.3446969986
-2.809771538
-2.314573765
-2.137772799
-0.9759157896
-0.9599074721
-1.541931033
-4.680916309
-2.309708595
-1.064473271
-2.566870928
0.3260200024
-3.038063765
-0.9948276281
-1.912939072
-2.140596628
-1.749658108
-2.119497299
-1.497248411
-2.05271697
-1.320432186
-1.713670969
-1.411754608
-3.094721794
-1.400308728
-2.25916934
-1.090974569
-1.176676035
-1.368495941
-0.8949952126
-1.307513595
-2.103276014
-1.604272842
-2.841217279
-2.621555328
-2.638611555
-1.935748577
-1.342300415
-2.37609005
-1.91145575
-2.614705563
-1.535763144
-5.01820755
-2.224822044
-3.378414869
-1.639356136
-2.414718151
-3.198666334
-2.159161091
-0.661057651
-1.239153028
-1.367444634
-2.290238619
-1.449839115
-2.046565533
-1.637856007
-1.523255944
-1.713947535
-1.938466549
-1.014075041
-2.608548164
-2.012205362
-0.9021988511
-1.016871333
-1.369437218
-0.6864911318
-1.470153093
-0.1184216961
-2.506788731
-2.613310337
-1.576753259
-1.195498228
-1.114459991
-1.643845558
-2.021256924
-2.196816683
-1.622471333
-0.8449835181
-1.387800574
-1.077676296
-1.443880439
-1.094638586
-0.7773043513
-0.7851649523
-1.90352428
-1.34291327
-1.181711316
-1.36723125
-1.976795197
-0.8076953888
-4.596925735
-1.872531533
-2.140531301
-2.047682285
-0.9334521294
-2.168582678
-1.202355146
-3.151423454
-1.562063336
-1.408868432
-1.97865665
-1.777649522
-1.539764285
-0.8511052728
-2.305347443
-1.388436794
-1.640770674
-2.476077795
-2.008013248
-1.456833124
-1.943323612
-1.210932136
-2.793217659
-1.133206248
-2.375772476
-1.532195091
-4.522618294
-1.494296551
-1.946653128
-2.010917187
-2.661060333
-2.277728796
-0.8949128389
-0.007705166005
-2.147578716
-1.479305506
-3.222722769
-0.01359931286
-1.38302362
-1.345013618
-1.205981255
-1.569203377
-1.152979851
-2.60504055
-0.9503480792
-1.319291592
-2.703485012
-1.240415812
-0.4677088261
-3.249803066
-1.559129
-1.657894254
-2.85037899
-1.484810591
-0.7237803936
-4.248726845
-1.755241156
-1.419838071
-1.053802609
-4.062251091
-2.600142002
-1.390209913
-1.954074264
-1.397858024
-1.45099318
-2.439998627
-2.768748522
-2.505572319
-2.447614193
-1.825661659
-1.70455575
-2.555343628
-1.321932912
-2.497449636
-1.802772164
-0.5340726376
-0.8776341677
-1.684454083
-1.869692922
-2.824760437
-3.219155788
-0.6380053759
-1.363524199
-4.234710693
-2.106719971
-2.390582561
-0.6899276376
-1.11459291
-3.079226255
-2.001702547
-1.595928907
-0.6877318621
-0.9667671919
-1.913416624
-1.191816807
-1.553602338
-2.18206954
0.01916970499
-1.228090763
-0.9490659237
-1.419873953
-3.473536968
-0.6593122482
-1.244074345
-2.66008997
-1.976360917
-1.287937641
-1.001800418
-1.479939103
-1.452016711
-1.513760805
-1.727891207
-1.306709051
-1.429968119
-1.211609244
-1.864885092
-2.510049105
-1.661142826
-2.37655735
-1.358887911
-3.193407774
-1.852786064
-2.154103756
-1.15852952
-2.949752331
-2.137125254
-0.9362576008
-1.561448336
-0.8822530508
-2.114778042
-2.088425636
-0.2710645199
-1.410660982
-0.2905074358
-2.019459486
-0.2070126235
-1.386955857
-1.296444178
-1.267188549
-0.6473237276
-1.597120881
-0.7398974895
-1.037513733
-1.270926833
-0.3193524778
-0.9508780241
-1.157729506
-1.113302708
-1.439769506
-0.9447569251
-0.9992711544
-0.9939073324
-0.5301106572
-1.129667401
-1.654458404
-1.799064875
-0.4897622466
-1.561781168
-1.761443138
-1.951776981
-1.205534935
-1.036382556
-1.36670351
-0.5213314891
-0.9476802349
-0.8837468624
-0.2727780938
-1.194019556
-0.8984117508
-0.2881803513
-0.89209795
-0.9063978195
-0.3274709582
-1.164586782
-2.160422325
-0.9863493443
-1.331076145
-0.5943945646
-0.5567894578
-1.337121725
-0.04122745246
-2.444474459
-0.7704511285
-0.8894245625
-1.420720816
-0.3630191088
-0.8146862388
-1.203954697
-0.271946609
-1.302143455
-1.241590858
-0.9087697864
-0.669252634
0.2463657409
-1.164226055
-0.7203880548
-1.181244612
-0.7328979969
-0.9776595235
-0.5668467879
-0.7791418433
-1.001580954
-1.670199633
-0.6247527599
-0.978274703
-1.53005743
-0.9798381329
-0.8604499698
-1.616687536
-0.8520274758
-0.4399265945
-0.5750206113
-0.1160822362
-1.199973822
-1.114443302
-1.233270407
-0.8936733007
-1.619565129
-0.8440832496
-1.628831625
-1.0913589
-1.530683398
-0.7252298594
-2.040877581
-1.136583567
-0.9271492362
-1.388669491
-1.098682284
-0.299054563
-1.382829309
-1.090923071
-2.112612009
-0.1598796397
-0.9260497689
-0.8042683005
-1.831115365
-1.019430518
-1.040273786
-1.664646745
-0.6058830023
-1.173819661
-1.441435575
-1.355460405
-0.6536234021
-1.833920002
-0.07960850745
-0.3548179865
-0.9553033113
-1.326587319
-0.5099989176
-0.3299718499
-1.445629835
-0.8588643074
-1.474319935
-1.233941793
-1.493463993
-0.8935302496
-2.33437705
-0.3443981409
-1.595756054
-1.363900542
-1.677489996
-1.371631026
-0.5814614296
-0.1652068943
-1.302101493
-1.728313327
0.04377391934
-1.015663981
-0.6814714074
-0.9801161885
-0.6196852922
-0.01726394333
-0.5205875039
-1.019778967
-0.8680427074
-1.465116024
-0.9824744463
-0.2832248211
-0.08410690725
-2.05416441
-0.5545559525
-1.031679034
-1.116084218
-2.091429472
-0.8757175803
-0.3426567912
-1.614798069
-0.8347545862
0.1462163925
-0.610661149
1.300257921
-1.290378332
-1.859854221
-1.775008559
-1.786886454
-1.103247166
-1.564951062
-0.6146912575
-1.344586134
-1.370509148
-1.618170619
-1.102274179
-1.031280041
-1.511670113
-1.575049281
-1.298388004
-0.2833622098
-2.128035069
-0.2092244625
-1.737281799
-0.6488325
-0.5452480316
-1.036510348
-0.5865165591
-0.2763583362
-0.3564901054
-1.531491876
-1.8005867
-0.3379679918
-1.660531282
-1.191547036
-1.156692505
-1.140796661
-0.4945367277
-1.208857894
-1.494786143
-1.36353457
-0.8419837356
-0.3311530352
-0.8370973468
-1.244262218
-0.805605948
-1.029573083
-1.037282228
-1.041210175
-0.2473318577
-0.9543697238
-0.8547910452
-1.269572496
-0.5216915011
-1.303076506
-1.21255672
-1.115037799
-0.7311881781
-1.005304933
0.01007493678
-0.8910687566
-0.5108803511
-1.147475958
-0.4050424993
-1.657448649
-0.9914101958
0.2667241096
-0.4384815693
-1.349905849
-0.8439283371
-1.028807282
-0.9719211459
-1.005599618
-0.0827980116
-1.768905282
-0.9070730805
-2.187198877
-0.4155080318
-1.278310657
-0.7788459659
-1.361893654
-0.9932410717
-0.5998615026
-0.8256442547
-1.249975801
-1.024567604
-0.8591815233
-0.7682706714
-1.277338147
-0.5139010549
0.2912020385
-0.2983354926
-1.168350458
-1.283627748
-0.5598028898
-1.508253336
-1.08703959
-0.7501837015
-1.077643871
-0.6567395926
-0.4071395695
-1.859012485
-0.7813729048
0.1235897988
-0.3948523998
-0.8191667795
-0.2653683126
-0.9785345793
-0.3854482472
0.02935191244
0.186927259
-1.288942456
-0.8664935231
-1.604611397
-1.138392091
-0.2940070331
-0.9581039548
0.360502243
-0.8041529655
-1.391502857
-1.6968292
-1.038521528
-1.096511364
-1.240890741
-1.001168251
-1.08288002
-1.961162686
-1.13669312
-0.7391774654
-0.7366769314
-0.8668174148
-1.154760718
-2.172302485
-0.633880794
-0.704328239
-0.9961822629
-1.14978838
-0.4389835298
-1.021929145
-1.386829257
-0.8487440348
-1.393530607
-0.8058269024
-1.004910827
-1.218262672
-1.670842886
-1.372895002
-0.7626016736
-0.8446442485
-2.115051508
-0.6720613241
-0.6861609221
-0.9911132455
-1.131706715
-0.6804083586
0.3727008104
-1.127394557
-1.750713587
-2.09647584
-0.8650993109
0.06306601316
-0.9144594669
-0.3963944316
-1.412576914
-1.440656185
-1.195948958
-0.1425443739
-0.6183640957
-1.049971223
-0.7693802714
-1.41420579
-1.582108855
-1.468629718
-1.542982817
-0.206497103
-1.318564415
-0.8979856372
-1.120435476
-0.7112535834
-0.7128281593
0.1140995026
-0.2348900884
-0.3642125726
-0.6539846659
-0.6077001691
0.07695059478
-0.7294396162
-1.395909548
-0.309787035
-0.825914681
-0.706784308
-1.03198576
-1.203083277
-0.4984956086
-0.6336161494
-1.322765589
-1.383369684
-1.26687479
-0.8409124613
-0.8307349682
-0.03744779155
-2.066512585
-1.04232347
-1.373441815
-0.5657764673
-1.476185679
-0.9521468282
-0.3940700591
-1.449590206
0.2411121577
-0.8964440823
-0.8185302019
-0.8143109083
-1.070788503
-1.364102364
-1.096027613
-0.826176703
-0.8620100021
0.09196791798
-1.151408553
-1.476219416
-0.1277096868
-1.402234912
-1.314002275
-0.8232067823
-0.8255081773
-1.570290685
-0.5577663183
-0.6960018277
-0.4586155415
-0.6121698618
-1.796497345
-0.8983267546
-1.716986775
-0.873542428
0.06226481497
-0.9877179861
-0.8347265124
-1.359157801
-2.998702288
-0.8702903986
-0.3946124613
-1.457318425
-0.4785114229
-0.637691021
-0.7937842011
-1.182692409
-1.047054172
-0.993437469
-0.7050167322
-1.368124604
-0.4408778846
-0.622253418
-2.715289831
-0.8760489821
-0.9096465707
-1.634101748
3.740838766
-1.656865716
-1.734878302
-1.340712428
-0.8584412336
-1.215126991
-0.9192938209
-0.7537195683
-0.6044763923
-1.538707256
-0.7917158604
-0.748002708
-0.4098784328
-1.233517885
-1.271789074
-1.629866004
-1.253629684
0.9995579123
-1.132614851
-0.6612332463
-0.5531605482
-1.092444658
-1.894183755
-0.1207598299
-0.8348955512
-0.5364489555
-1.310716033
-0.5862532258
-0.9749780893
-1.18286705
-0.9275858402
-0.3439944088
-0.9845961928
-1.686955333
-0.9695367217
-1.18296361
-1.569494724
-1.007429838
-1.177396774
-1.741281748
-0.9820951223
-0.4430238605
-0.4596206248
-1.908730268
-1.091974139
1.389155984
-0.5566985011
-1.259390354
-0.5297403336
-0.5727819204
-1.005628347
-1.223737597
-0.7573142052
1.748428345
-0.2609734237
-0.5527872443
-0.9403324723
-1.164750934
-1.448626399
-0.9271390438
-1.300195217
-1.347579002
-0.9985781908
-1.541825056
-1.193566442
-0.4218925238
-1.136710644
-1.338232756
-1.105944037
-0.8874622583
-1.71834743
-0.360114187
-0.7548003197
-0.9610030651
0.0001067287158
-0.3317780793
-0.6593084335
-1.277107716
-0.9910246134
-1.294286013
-0.6805320978
-1.673888683
-0.687366128
-1.077067733
-0.6740391254
-0.4826490879
-1.937467217
-1.023331642
-1.113917708
-1.912465096
-1.49375844
-0.6711882353
-0.8909383416
-1.210110307
-0.9974228144
-1.73172915
-1.531278491
-1.366865516
-0.306201905
-1.004347682
-0.7312656641
-1.325142264
-1.603009462
-0.8445807695
-1.040945768
-1.122572899
-1.198733449
1.977486968
3.842995644
3.766866922
3.430288792
2.973538876
3.294787407
4.173638821
2.352126837
2.873679876
2.976547718
3.272503376
1.909330368
2.546932459
2.448823452
3.022426605
4.010131836
2.788110256
3.408873796
2.350511551
3.515430212
4.020445347
4.106327057
2.163030148
3.05185008
2.65157342
2.709774733
3.315220356
1.761983275
3.303455591
2.555984259
3.604068995
3.505224466
2.444118261
2.325211763
2.666633844
3.11904192
2.386988401
2.421819687
2.252847672
3.708783388
2.512164593
3.258613348
4.21809864
2.472886086
2.997474194
3.157510996
2.938980579
3.40970397
2.16394496
4.277141094
3.152689219
2.658136129
3.030249834
3.429812193
2.537461042
1.999811053
3.259697676
2.534770012
4.566549301
3.880581141
3.42575407
2.920732737
2.545039654
6.385268688
2.280070066
3.814751148
3.617869377
3.213173628
2.443661213
3.619129658
3.58866024
5.113122463
2.630309105
3.820128679
2.831148148
2.192784071
2.878834486
2.882331133
3.60048914
2.718559742
2.865842581
2.419877052
3.576717377
2.741034746
5.044085503
3.041062832
1.873508692
4.013603687
2.65434432
3.595164776
3.882406235
2.997354746
3.654065609
4.059699059
2.37187624
2.504904509
3.846222162
3.83483839
1.744574785
4.160219193
2.894146681
2.60965991
2.886773586
3.520901203
5.013659477
3.868553162
3.620482922
2.894397736
2.738712549
2.316490889
3.237702131
3.72090888
3.242482424
2.644677639
3.676209927
2.59820199
3.225474119
2.745547056
4.726042747
2.742792845
2.893276215
2.535503387
3.191059113
3.052877903
3.352621555
2.705302715
2.290283442
3.738166571
4.017776012
2.456536531
3.044111013
2.628247261
2.214384794
3.083977938
1.95147872
3.648718596
2.792551279
2.750466824
4.145724773
2.42945838
2.392813206
2.459540129
2.020593882
2.724616289
4.360081196
5.314071178
3.746809244
2.018033028
2.959068775
3.72598815
3.648197651
4.288479805
2.978934765
2.429304838
3.252215147
2.700483799
2.706257343
2.512136936
3.023958921
2.399826288
3.433398008
3.022068977
4.779923916
2.741780758
2.455714703
2.984386921
3.215523958
3.098013639
2.724983692
4.712902069
2.897304296
4.855831146
2.757523537
2.93525672
2.742611647
3.241462231
2.990895987
2.271234274
5.281709671
2.849787235
2.26832509
3.18184042
4.23581171
2.844848871
2.37969017
3.098784685
2.87098074
3.546845675
3.233873606
3.415830612
2.710384369
2.87155509
2.629382133
1.583205104
2.701521873
3.646696091
4.093803883
4.392753601
2.02537632
2.558133841
2.40396142
3.220073223
1.833446264
3.150173664
2.275444984
2.945063114
2.563419104
3.760093212
3.156611204
3.776365519
3.125121117
2.294928551
2.443022013
2.55130887
3.367749453
1.838917732
4.291079044
2.428682804
3.412534237
2.934856415
2.803845406
2.778991461
4.105504513
1.771086454
5.052159309
3.551827431
3.780518055
3.065700054
2.600339413
2.595306873
3.057253361
1.884179831
2.848423243
2.131014347
2.996753693
2.487258911
3.942694426
3.594679832
3.396337271
3.399577618
3.489803553
2.656230927
3.187444925
4.21094799
2.541870594
2.370188951
3.167816639
2.738003969
2.976503611
3.533472776
3.464463711
4.316902161
2.65557003
2.577732325
2.72024703
2.199296236
2.688784361
5.406582832
2.665483952
2.60324192
2.02097702
2.400594234
2.88051939
2.425340652
3.16423583
2.525851488
2.464911222
3.339851379
4.406424046
2.565669537
1.907144189
2.91499567
2.932914257
2.8901546
3.82571125
2.668124676
2.936616421
3.063879728
2.625563145
2.475100279
6.028926849
2.627464056
2.435045242
3.143979073
3.276769876
2.736819506
2.383351326
3.596242666
3.555389404
3.147404909
2.535667658
2.181246519
2.893182278
2.529851675
3.255443335
2.816686153
3.235733271
2.800373793
3.417889357
3.799004793
2.385299921
2.703649759
3.836565495
2.180983305
3.063711405
3.379407406
3.29140687
3.245767832
3.67222476
2.396921158
3.086970806
4.052022934
4.608463764
3.553869724
2.382147551
2.719673634
3.435512543
3.109306097
3.033106565
3.024851084
4.541396141
2.096466064
3.537984848
3.490971327
2.549321651
3.455021381
2.862952709
2.208197832
2.925309658
4.796696663
2.677082777
2.597049713
2.672368765
2.855300903
2.477542162
3.573794127
2.956600428
2.36574626
3.333371162
2.28512311
3.768187284
3.178293943
3.456709385
4.299068928
2.207574606
3.525530577
3.166572809
1.886649251
3.469693422
3.568846226
2.713963985
2.385074854
3.204309225
4.3655653
4.163581848
2.935415983
2.874366283
1.686558485
3.514308691
2.935019016
2.849554062
2.737260818
3.595552921
3.454965591
2.691302061
2.475189924
2.315294504
3.190460682
3.842085361
3.693885803
2.981913805
2.722377062
2.109989405
2.33680439
3.44337225
2.642939329
3.714046001
2.788496256
2.932141304
3.4467659
3.399374962
3.487416029
2.835519075
3.114017963
2.41200614
3.193436146
3.759830236
4.605674267
3.217689753
3.748839855
3.499380827
2.527479172
3.522434235
2.008818388
2.828129292
3.63771677
4.356078148
3.207526207
2.062391043
2.372807264
4.283412933
4.337113857
3.62480402
3.713641644
2.86387825
7.287168503
2.50496459
3.521624088
3.576539755
2.438610792
2.128695726
2.300936699
2.712655544
3.32811141
4.098685265
2.972104788
2.80191493
3.899135351
2.605256081
4.551454544
2.567307949
3.369995832
2.708837748
3.168571472
2.835487366
2.54472661
3.297986746
2.661408901
2.900327444
2.288049936
2.473799229
2.988423347
2.852871418
2.54633069
3.114032745
2.637658834
2.693664074
2.471632481
2.317662001
3.150209427
3.710078955
4.175961971
2.734864235
2.598665953
4.680675983
2.367441654
3.219545364
2.618367195
3.119360447
3.552449465
3.514957905
3.377752066
2.342962742
2.93110919
3.153025866
4.245452404
2.748350143
3.100385904
3.37381196
3.187829971
2.831663132
1.855767488
2.823537827
3.369518042
3.845391035
2.57576704
2.909252882
4.318576813
2.374885082
2.160152197
3.043796539
2.254490137
2.846825123
2.90601182
3.092763186
3.305227995
1.936744332
2.114833832
2.773513317
2.611965895
3.57536459
2.754529715
3.379728079
3.0692451
3.379585743
2.616407156
3.160189629
4.097812653
2.765589714
2.732692242
2.491841316
3.490195036
2.860001326
3.496484756
4.60713768
2.893842936
3.717900515
3.252922297
2.46554637
2.998463631
2.684863091
3.166520596
2.586234093
2.303771973
2.854052544
2.939175606
3.167892218
5.061992645
2.868402719
3.479466438
2.497799635
2.949541569
1.318284392
1.374334097
1.331267357
1.594604015
1.696259499
1.816111565
1.282865882
1.398804665
1.436246157
1.604806423
1.32007122
1.656625628
1.302635431
1.682326794
1.531719327
1.262557507
1.69872427
1.31746912
1.294476867
1.463840246
1.785233974
1.268672585
1.472204447
1.453143477
1.677219868
1.723633409
1.38752234
1.604562759
1.146093488
1.818347335
1.641394377
1.998693585
1.798587084
2.072315693
1.50067246
1.912062168
1.481907368
1.650949359
1.582979321
1.613230467
1.707551003
1.231601596
1.334584832
1.760778785
1.380027533
1.632890821
1.353439569
1.858530641
1.459870577
1.183290482
1.393437624
1.383189678
1.268997908
1.525463104
1.509764433
1.999530315
1.456521392
1.551479697
1.121470213
1.893479109
1.328204632
1.375990033
1.294759512
1.614511013
1.755012274
1.655699968
1.441677213
1.759879231
1.362138629
1.422173619
1.560214639
1.713480353
1.539957523
1.662944078
1.268509984
2.083280802
1.346441507
1.642997265
1.589860559
1.164496779
1.22854352
1.647606611
1.419811726
1.5582515
1.145454645
1.612627625
1.861949325
1.67115283
1.515136003
1.454133868
1.622697115
1.587168455
1.012034416
1.303914905
1.973856568
1.818405628
1.653851986
1.301724315
1.731105089
1.164407015
1.706737995
1.71405983
1.4471246
1.700711131
1.582480669
1.346282244
1.38285315
1.329707861
1.511459708
1.618054986
1.217634916
1.590777874
1.340301752
1.43257308
1.526832819
1.762895823
1.366914034
1.603172421
1.270767212
1.078463793
1.502528787
1.724787593
2.21037221
1.122390509
1.454436064
1.756549835
1.703691721
1.043373585
1.229368448
1.619023085
1.446109295
1.389761686
1.275426388
1.598235607
1.680766106
1.253997087
1.472979546
1.33874166
1.324078202
1.451872826
1.548475027
1.193353534
2.008499146
1.612843275
0.9775564075
1.19045043
1.412458181
1.587273479
1.302101135
1.474149823
1.296186447
1.67156446
1.461502075
1.981695652
1.482109547
1.156732082
1.876910925
2.017233849
1.739147186
1.287210941
1.900294542
1.677245617
1.082413912
1.719937325
1.601766467
1.864757538
1.342310309
1.382087827
1.703879595
1.054582357
1.312940598
1.292235732
1.529830813
1.661178112
2.000038624
1.526208878
1.147467136
1.610017776
1.436516643
1.565434933
1.840848446
1.51010561
1.179626107
1.657212138
2.218370676
1.273716092
1.651414037
1.859442472
1.34422946
1.621638179
1.947833776
1.461758137
1.322186351
1.789471507
1.373691559
1.683224678
1.344874024
1.212820172
2.026740074
1.471529484
1.654204726
1.409044385
2.005896091
1.684608698
1.817958236
1.529800415
1.414998651
1.284792662
1.561220407
1.601085663
1.322607994
1.289990664
1.39965415
1.790804744
1.070972204
1.731042624
1.609328628
2.069872379
1.459397078
1.50965023
1.47582078
1.802746058
1.081381202
1.558590531
0.9428982735
1.327443123
1.742700577
1.50230372
1.912812471
1.662169695
1.739144683
1.865942597
1.492752433
1.0893296
1.748731375
1.642175674
0.8675400019
1.324217916
1.407993793
1.27111578
2.139564037
1.692076206
1.780846477
1.641531348
1.613974094
1.936582565
1.220595241
1.417043447
1.426680803
1.236464381
1.325576305
1.606696725
1.546063304
1.864972115
1.462337375
2.219265223
1.294951081
1.458060026
1.545022488
1.604754686
1.840964794
1.599649191
2.071669579
2.08159399
1.560040712
1.401145935
1.448377371
1.754699111
1.399918079
1.481175661
1.336716533
1.823116302
1.74696207
1.46202445
1.490730524
1.393559933
1.669811487
1.453267097
1.403746724
1.587827921
1.498628855
1.779992104
1.434117794
1.684489369
1.587948442
1.310059786
1.367763758
1.393193007
1.428053021
1.557387829
1.602836013
1.580468297
2.063387632
1.515720248
1.452185154
1.455348492
1.440020084
1.151105762
1.570787072
1.204481721
1.472447634
1.32605052
1.379675269
1.035596251
1.315658092
1.34909296
1.584810019
1.671494842
1.468910813
1.029386044
1.754729271
1.615039825
1.257251859
1.81403029
1.53653574
1.352262855
1.368679762
1.497226
1.529165864
1.763118744
1.436230659
1.547814608
1.368763328
1.72238481
1.461407781
1.50231421
1.308699369
1.4216609
0.9737249613
1.08171463
1.756324172
1.824160337
1.679306149
1.245145559
1.70072484
1.248263121
1.730140924
1.933030128
1.529881716
1.517964959
1.307284355
1.404448628
1.446010232
1.400154591
1.294054627
1.088854671
1.545488
1.847334146
1.106964469
1.147021651
1.464410782
1.755801201
1.612462044
1.163892746
1.409020424
1.162034273
1.319571972
0.7670034766
1.139261484
1.274205446
1.897402525
1.905510664
1.134791374
1.271493673
1.316651464
1.734751225
1.358361959
1.159617662
1.417337298
1.34835875
1.505408406
1.408954382
1.578642011
1.999576211
1.530255914
1.641478419
1.25652945
1.190712214
1.308346987
1.750472546
1.668849111
1.658769011
1.513334513
1.105727315
1.5407933
1.68578434
1.469502568
1.596809268
1.513751388
1.787269592
1.913216829
1.607636213
1.3105371
1.670336008
1.442933679
1.508691788
1.380421042
1.59247756
1.594344258
1.079409361
0.9683834314
1.652546167
1.503528595
1.272818327
1.670632362
1.073579669
2.084521055
1.613278508
1.487113714
1.516028404
1.802149534
1.590433121
1.524134517
1.323523521
1.90079093
1.363420963
1.654430389
1.412370205
2.156589985
1.336013436
2.287895203
1.386077404
1.117940664
1.292005539
1.268706799
1.929412842
1.651534557
1.523484349
1.003459811
1.757262111
1.778999805
1.410436153
1.524838924
1.097506046
1.565617681
1.196387053
1.287695527
1.91169548
2.72660327
1.40727663
1.489586115
1.568786263
1.730188847
2.11183691
1.40952158
2.238639116
1.307194352
1.557963371
1.300567031
1.171965837
0.6835413575
1.353555202
2.26750803
1.933818102
1.286298513
1.534769535
1.67518568
1.543554306
1.268779755
1.496084332
1.39274323
1.242983103
1.417734385
1.6559515
1.532042742
1.613378048
1.492325306
1.353358746
1.272428155
2.168349981
1.732951164
1.280126214
1.470433593
1.563320875
1.423787117
1.808419466
1.496296763
1.657112956
1.371189594
1.47629559
1.253397465
1.515188217
1.573907852
1.696000576
1.340996027
1.655044794
1.774157763
1.269416094
1.56154418
1.687423706
2.078557253
1.37627244
1.817938089
1.571980357
1.218096375
1.572361231
1.491548181
1.331967115
1.642895341
1.103972912
1.516616821
1.601462841
1.618325949
1.554086089
1.615630746
1.504846215
1.369270563
1.138233781
1.491913557
1.625143886
1.253232002
1.797805309
-2.01872468
-1.097162962
-0.9980521798
-1.990728617
-2.99354887
-3.657943487
-0.8007019758
-1.611184597
-1.904207945
-2.202277899
-1.854982615
-2.407727718
-1.298499227
-2.446987629
-2.734413862
-0.9615671635
-2.323387146
-1.111585617
-1.45784843
-1.736378908
-2.013324022
-1.013123751
-2.116974115
-1.801178932
-2.453041315
-2.080552101
-1.372748375
-2.33691597
-1.236403942
-2.505449533
-1.652694464
-2.657566071
-3.615735054
-3.209433556
-1.983732343
-3.862797737
-1.942634106
-2.540146351
-2.404095411
-2.27547121
-3.152209759
-0.9101347327
-1.465687633
-2.645617962
-1.52872467
-1.945607543
-1.497749925
-2.569920778
-2.399331093
-0.6404070854
-1.803349495
-2.512288332
-0.9323991537
-1.302175522
-2.516784668
-3.868032455
-1.520808935
-2.249711037
-0.4536860585
-2.123291969
-0.7593421936
-2.405897141
-1.686102867
-1.352212191
-3.430918932
-1.286159277
-1.534141302
-2.372450113
-1.440207243
-1.31976521
-1.8516711
-1.880362511
-1.637235403
-1.039761305
-1.666429281
-3.851295471
-1.933491707
-2.204795122
-2.05268693
-1.050810575
-1.689950347
-2.371194363
-2.558775663
-2.095512152
-0.7557939291
-2.476672649
-3.577767611
-1.469607949
-2.271882057
-1.420536876
-1.976327777
-1.812920094
-0.6475434303
-0.7413675785
-3.103108406
-2.534654856
-1.479955673
-1.854945064
-3.270408392
-0.7792618871
-2.543189049
-2.701659203
-1.882504106
-2.152465343
-1.46505034
-1.272239685
-0.9125036001
-1.229631186
-1.938329816
-2.153485537
-1.024402738
-1.502892971
-1.587325692
-2.01522541
-0.8939121962
-2.813901901
-1.758052349
-2.078769207
-1.310239196
-0.912263155
-2.306255817
-3.16246748
-3.529032946
-1.297317266
-1.113131285
-2.621187449
-3.068807602
-1.037775755
-0.5664571524
-2.720413208
-1.478071928
-1.473751307
-1.700819492
-1.519297719
-2.580405712
-1.128960609
-1.535637975
-1.45103693
-1.137160659
-2.107997894
-2.23293972
-1.624630451
-3.3237679
-2.030479908
-0.2944318652
-1.02428329
-2.282192707
-2.777745724
-1.701027632
-1.721500516
-0.6637173891
-1.632309437
-2.754079342
-3.627806664
-2.359659672
-1.653008342
-3.004413605
-3.747850657
-2.676267147
-1.330817938
-2.825741529
-2.776735306
-0.5858904719
-2.453779221
-2.480601788
-2.832887411
-1.066660404
-1.161261797
-2.730164289
-0.6423385143
-1.180605531
-1.178798795
-1.948266029
-2.20802021
-3.611367464
-2.050774574
-0.7802656293
-1.994129181
-0.6416119933
-2.153071642
-2.902885437
-2.185856104
-0.8835656643
-2.661710262
-4.72630167
-0.9913758636
-2.865347862
-2.55870676
-1.236052394
-1.869413137
-3.614418983
-1.771754384
-1.586840749
-3.38628149
-1.800524592
-1.787255049
-0.9587931037
-0.5792289972
-3.620506763
-2.311283588
-2.308619022
-1.793313742
-3.936375618
-1.963098526
-2.519726276
-1.861159563
-1.443900824
-1.18875432
-2.10738039
-1.613384724
-1.387296557
-1.340614557
-1.985724807
-2.60624218
-0.5389856696
-2.788757801
-2.069817305
-4.300010681
-1.551689029
-1.9955194
-2.239852667
-2.366061926
-0.6014777422
-2.74229002
-0.4157509804
-0.8243962526
-2.239198685
-2.074473381
-3.204484463
-2.284584045
-2.403777838
-3.388276339
-2.117793083
-1.095800281
-2.51330328
-2.444577694
-0.3588452041
-1.06308341
-1.331757545
-0.9185526371
-3.786391735
-2.258063555
-1.904947877
-2.621211529
-1.975278378
-2.948904276
-1.233907223
-1.333278775
-1.228793502
-1.164460421
-1.062275767
-1.410325646
-1.683951497
-2.79889226
-1.510558963
-4.339276791
-2.07332468
-1.197384119
-1.859887481
-2.575278521
-3.672873735
-2.25240159
-3.907536507
-3.303278446
-2.660977364
-1.53691411
-2.210591078
-2.825070143
-1.160997629
-2.408341408
-2.917899609
-2.343985796
-2.531768084
-1.888572335
-1.272703648
-1.741266131
-1.826049328
-1.53591156
-1.537362576
-2.268609047
-0.4946348369
-2.864682436
-1.473935127
-2.414873123
-1.674580693
-1.465758681
-1.629215956
-1.631163239
-2.340614796
-2.206053734
-2.192685127
-2.457910299
-3.456998825
-2.681901693
-1.757150173
-2.050076485
-1.964815736
-1.008199692
-2.79098177
-1.644479394
-1.994994879
-1.667180538
-1.312250614
-0.7735201716
-1.188817859
-1.773164749
-2.20052433
-2.403246403
-1.332308531
-1.248149037
-2.868927479
-2.206589699
-1.032412529
-1.946081877
-1.50521028
-2.016431093
-1.591593385
-2.111795187
-1.938648462
-2.663814068
-2.003526926
-2.291016817
-1.778124332
-2.202898979
-2.100717783
-1.79326272
-1.517802358
-1.843274951
-0.7398164272
-0.5603091717
-3.022743464
-2.375425339
-2.262527943
-0.9604021311
-2.65389657
-1.045175076
-1.808790922
-3.468248844
-1.624698281
-2.38483429
-1.239251375
-1.219976664
-1.606207728
-1.19879353
-1.679868102
-0.7274177074
-1.486948013
-4.091756821
-0.7658545971
-0.9293751717
-2.066957474
-2.145260811
-1.964163423
-0.9092725515
-1.604448438
-0.712762475
-1.135176659
-1.14750886
-0.8218411803
-2.326646805
-2.568265915
-3.187846422
-1.375418425
-1.638881922
-1.093932152
-2.916138172
-1.52636981
-1.217051625
-1.398612261
-0.7893079519
-1.846655846
-1.454314947
-1.930493355
-3.815353394
-2.414845943
-2.06016922
-0.648114562
-1.059956789
-1.316851258
-2.476995707
-1.938969135
-2.78293705
-2.0603652
-0.6475753784
-2.096735954
-2.639318466
-1.311561942
-1.53881979
-1.529903054
-1.728225708
-2.722494125
-1.923615932
-1.084689736
-2.58054471
-1.968724132
-1.445726275
-0.9055297375
-1.592181683
-2.714205742
-1.390787482
-0.6710296869
-2.098458529
-1.404269934
-1.564419746
-1.413696289
0.1506087333
-4.008161545
-2.090320587
-1.680459738
-1.921337128
-3.483552933
-2.383472443
-1.984176397
-1.970867276
-2.386270285
-1.590631485
-1.929769754
-1.187592745
-3.914380789
-0.985660255
-4.721921921
-1.369357109
-1.228457928
-1.141523957
-1.186286807
-2.988045692
-2.011488199
-2.015975952
-0.7942819595
-2.899091005
-2.491247177
-1.627869129
-1.836279631
-1.299446821
-1.870373607
-1.287148118
-1.669162989
-3.419613838
-5.528492928
-1.718238235
-1.465913534
-1.393769026
-2.707630396
-3.907901287
-1.149244189
-4.184841633
-1.68753016
-1.963680029
-1.605804682
-0.6889081001
0.4258947968
-1.080921173
-4.340500355
-2.6073699
-1.732250094
-2.019936085
-3.019219875
-2.169700623
-1.750607967
-1.207437038
-1.19347465
-1.183545113
-2.272391319
-2.389936686
-1.915674329
-2.29746151
-1.821102858
-0.710134089
-1.872417688
-4.011605263
-2.404412746
-1.55696106
-2.168595791
-2.215167999
-1.266031981
-2.87467885
-2.251767159
-2.284014463
-1.612540722
-1.787977457
-0.8274900913
-2.141155243
-1.953942537
-2.511073589
-1.255086184
-1.933327794
-2.912550449
-0.9892819524
-2.588608503
-2.060207844
-3.694557667
-1.571783543
-2.837294579
-2.086126804
-0.9363808036
-2.600169659
-1.505898595
-1.206668973
-2.052073956
-1.285603523
-1.903046489
-2.348638296
-2.079517365
-2.163284779
-1.812361717
-1.63924098
-2.317005157
-0.9816085696
-1.887395382
-2.11244154
-1.381869078
-2.485896111
-0.1519865692
-0.2436559796
-0.123181358
0.05994258448
-0.2729788423
-0.1274062544
0.1611245126
-0.1494860798
-0.1556308866
-0.2917127013
-0.09151332825
-0.6039936543
-0.2363787889
-0.3715106845
-0.0622782819
-0.3798401058
-0.1600488126
-0.1094333678
-0.3641796112
-0.05651492253
-0.1676094383
0.1545217782
0.01149896253
0.04550144449
0.1483207345
0.2592989206
-0.192570582
-0.08342182636
-0.1122925058
0.1485415399
-0.2069726735
0.3493489027
-0.4751951396
0.07444099337
-0.3388833106
-0.4324495494
-0.2109624147
-0.250908345
-0.3381289244
-0.6149289608
-0.3315232396
-0.5485398173
0.120107308
0.1149725318
-0.3377417326
-0.5713816285
-0.01038672123
0.3801549375
0.08659115434
0.1097228676
-0.04073756933
-0.0837424323
-0.1536670476
0.04068993032
-0.1283213496
-0.198918879
-0.286519438
-0.2364068776
-0.5100106597
-0.2948465645
0.0662824586
0.2328956872
-0.2044991553
-0.2230335325
0.08859224617
0.215306893
-0.6957871914
-0.2409997433
-0.01266096532
-0.4577165544
-0.1762540042
-0.04550117254
0.07830552757
-0.2689696848
-0.3300888836
-0.3836089373
0.2798384428
-0.3742763996
-0.3773620725
0.1795597523
0.09252305329
0.1874465197
-0.2154147178
-0.4368788004
0.08218359947
-0.3440106809
-0.07506489754
-0.567171216
-0.6091383696
-0.2046228647
0.2687404454
-0.09847912937
-0.4282883704
-0.2082367092
-0.2473927289
-0.3995397687
-0.03659033403
-0.1027097851
-0.2016770095
-0.253098309
-0.1153343543
0.0827826038
-0.5304482579
-0.2848359644
0.4508296847
-0.08859939873
0.4148251712
0.06047322601
-0.2449107617
0.1750203073
0.0791105926
-0.30998528
-0.2885273099
-0.01960421726
-0.6308773756
0.03884285316
0.04418349639
-0.4411447942
-0.5454684496
-0.2952982187
-0.3403661549
-0.3470649421
-0.1025660187
0.0008562614094
0.110698767
-0.3420919478
-0.2284891009
-0.3898472786
-0.4951758385
-0.2744189501
-0.03074969538
-0.8992447257
-0.4021892548
-0.2710950375
-0.1497960538
-0.4577349424
-0.2344852388
-0.3664426208
0.1958332658
-0.1240002811
0.02336722985
-0.1266016364
0.1337470263
-0.3804112077
-0.5147853494
0.1147800758
-0.1532682925
-0.2531832457
-0.1779269874
-0.04053673521
-0.4675743878
-0.2882986367
-0.3434504271
-0.3104820251
0.06532107294
-0.4027992785
-0.002758241259
-0.1795587242
0.1521973163
-0.2902584374
-0.04483559355
-0.1077776849
0.2448227853
0.1018546298
-0.3191056252
-0.3986957371
-0.5847879052
-0.261559993
-0.2352298796
-0.04672918096
-0.4888193309
-0.1518267989
-0.04307220504
-0.2108040601
-0.05272980034
0.05840895697
-0.271571368
-0.5356684923
0.06912399083
0.01288473699
-0.349460274
-0.4656743705
-0.01893888228
-0.1795549393
0.14327842
-0.2281155288
-0.3566825986
-0.3829604387
-0.5238362551
-0.07736586779
-0.04897271842
-0.1656147391
0.08118963242
0.16674456
0.0844052881
-0.3830244839
0.08618578315
-0.6370110512
-0.5983959436
-0.05444195122
-0.3962039948
0.1352753043
-0.2042828798
-0.3329024911
-0.04531181604
-0.04769558832
-0.488835901
-0.3171466589
-0.2410183549
-0.2676872611
0.3324539959
0.01639734209
0.1767553091
-0.1016568467
-0.1930868179
-0.256495595
-0.6226275563
-0.2764477134
-0.2018794119
0.1599385291
-0.0009199898341
-0.3119088113
-0.4364762902
-0.1229603812
0.112646915
-0.5287690759
-0.1744438112
-0.3515783548
-0.1169550344
-0.2490959615
0.483741045
-0.3326476812
-0.1501509994
-0.2615374029
0.1392467618
-0.02462178841
-0.07179079205
0.02635189891
-0.4024250209
0.09332447499
-0.0241195187
-0.1947423667
0.03507937118
0.06389237195
-0.3850040138
-0.5631303191
-0.2607471347
-0.01815140806
-0.3972333372
-0.157947585
-0.01911012828
-0.4582383931
-0.299700141
0.007987211458
-0.3232457638
-0.08709894866
-0.3329443336
-0.07908824831
-0.06634217501
-0.2717167139
0.976872921
-0.7463575006
-0.03758712858
-0.1490539312
-0.05479650944
-0.3312526345
-0.1218612716
-0.2631982565
-0.2046656162
0.2543029189
-0.1529463083
-0.4287817478
-0.02150626108
-0.3179128468
0.001470421907
-0.1023578495
-0.01182646491
0.08839763701
-0.3355046511
-0.3454554081
-0.05895471573
0.05519222841
-0.2380822599
-0.1493755281
0.04903137311
0.1009880453
0.2444780469
-0.422447741
-0.1906002015
-0.2744900584
-0.1207653061
0.1231240258
-0.2590421438
-0.2331803441
-0.1314933747
0.02861089818
0.2253328413
-0.2440926135
-0.137791276
-0.3744416833
-0.2540518343
-0.07309260964
-0.4419931173
-0.2895315289
0.1399389356
0.04199458286
-0.09105091542
-0.4319743514
-1.17300868
-0.1337352842
-0.4726935029
0.08596794307
-0.1282050163
-0.3202209473
0.08350101113
-0.3924763203
-0.3141008019
-0.3568550348
-0.2402431071
-0.0934034735
-0.3628194034
-0.1129531935
-0.06133449823
0.1032301933
0.03114007041
0.318669349
-0.192260012
-0.3738639653
0.00483703427
-0.3006803989
-0.3597289324
-0.3093096316
-0.04552784562
-0.5201478004
-0.4282281995
-0.1387779415
0.1411343813
-0.2604030073
-0.5629023314
-0.314532429
-0.4418912828
-0.1664413512
0.04035470635
-0.2743738294
0.04755467176
-0.2076696903
-0.09428755939
-0.2272645235
-0.09868191928
-0.5271164775
-0.2423909754
0.1287190467
0.1238350347
-0.4113529027
-0.5291191936
-0.03568952531
-0.4290474057
-0.1950190365
-0.2422925085
-0.2501635551
-0.3658246398
-0.4140312672
-0.2586936653
-0.1574697644
-0.4706663191
0.02472283691
0.1802384257
0.05771820992
-0.01141191181
-0.1348702163
-0.2896941602
-0.9388728738
-0.2417355031
0.1778602749
-0.7766678929
-0.4055281878
0.1955546141
0.0788051337
-0.2322387695
-0.4905456603
-0.6995756626
-0.5413069725
-0.3775860667
-0.08690973371
-0.4546876252
0.5968105793
-0.03055753931
0.07346574962
-0.03770119324
-0.3392833769
-0.1993480474
0.01460166182
-0.1642857641
0.183283329
-0.2611827552
-0.1965325475
-0.1992100626
-0.2992515862
-0.008031692356
-0.1707645208
-0.336650759
-0.514621675
-0.1208158582
-0.3635761142
-0.2632340491
-0.04185816646
-0.2693354189
-0.2447069585
-0.02593380399
-0.07581802458
-0.05319523439
-0.4475314915
-0.1074905246
-0.1972879618
0.1825658828
-0.3194800019
0.001617615228
-0.1847287714
0.003077702364
-0.4436319172
-0.09739626199
-0.2824614048
-0.2854423821
-0.08023349196
-0.2144754082
-0.02884928882
-0.4470394552
-0.2433958948
-0.2778138518
0.03780282661
-0.2891122103
0.06889047474
0.09936706722
0.4566613436
-0.3122331202
-0.5724158883
-0.002373752883
-0.003203157336
-0.312851727
-0.4905347228
-0.02586982213
0.06360475719
-0.09462478757
-0.4710225761
-0.3368740082
0.2304181904
-0.1579546928
0.1252284199
-0.3670636415
-0.03264785558
-0.1457528919
-0.2219158113
-0.5240007043
-0.3324842155
-0.3625173271
0.1732280552
-0.6773396134
-0.4406799376
-0.244282335
-0.2472614646
-0.2658254206
-0.4388014972
-0.4985219836
-0.05066279322
-0.4256219566
-0.306715101
-0.3553391099
-0.2135586441
-0.3503721058
-0.1535764337
-0.3653168976
-0.1158812717
-0.231985569
-0.1060557738
0.2044099569
-0.2488166243
-0.07861790061
-0.1192730814
-0.06525934488
0.3130424023
-0.251311034
-0.3147456944
-0.1071980372
-0.2793679237
-0.3120352328
-0.2715291381
-0.2003984898
-0.7816627622
-0.2386256754
-0.7679681182
0.1468300223
-0.2542742491
-0.1482485831
-0.5633619428
0.0113557307
-0.4408197403
-0.005973129068
-0.2892365158
0.253467679
-0.09196683019
-0.1714171022
0.09175035357
0.4107456803
-0.5669558644
-0.3695228398
-0.0397303775
-0.6259088516
0.1185447052
-0.2597846091
-0.1060711667
-0.1477187425
-0.2814178169
-0.3485918343
-0.4050072432
-0.4178513587
-0.1130378321
-0.1978591084
-0.06191156805
-0.3923156261
-0.09303469211
-0.1306393445
0.2167079747
-0.4681059718
0.01391542051
-0.1887130588
0.1373343021
0.277195245
-0.4213163555
-0.1209353134
0.1049774066
-0.1414090097
-0.150498271
-0.1305740178
-0.1281968206
-0.2755360305
-0.3464057148
-0.358183831
-0.2871572375
-0.2591616511
-0.2352542132
-0.507930398
-0.003205002751
-0.04286592081
-0.09825665504
0.1558124274
0.03063610382
-0.09350586683
-0.2386986613
-0.5399051905
-0.07522688806
0.6084113121
-0.5496894717
0.3574231267
-0.06942403316
-0.4494597614
-0.2786735296
-0.3219031394
0.1560421586
-0.2771719694
-0.09325287491
-0.5092856884
-0.1087587923
-0.1308577806
-0.7206972241
0.09868506342
-0.132678479
-0.3148961663
-0.1836927235
-0.1913897693
-0.4275005162
-0.3575414717
-0.2373173088
-0.402349174
-0.3764645457
-0.2405466586
-0.2478770018
-0.1132511869
-0.2130780965
-0.09907441586
-0.4414028823
0.07282467186
-0.3257825971
-0.1642968208
-0.4179397821
-0.199901402
0.1005685106
-0.4663409591
-0.1834882647
-0.2866044641
-0.1576555371
-0.266651392
-0.2485844344
-0.05283927545
-0.02803781629
-0.1049373895
-0.1563506871
0.009801430628
0.2359432429
-0.3771250248
-0.5792674422
-0.1094184667
-0.3346886635
-0.07604768872
-0.6051172018
-0.604860425
0.1208887771
-0.3539679646
0.03404783458
0.1400056183
-0.2706707716
0.02080153488
0.2583012581
0.01130194776
-0.7790863514
-0.4084428549
-0.1733166724
-0.08232691139
-0.3485121131
-0.5591583252
-0.2997525036
-0.4902070165
-0.1473219246
-0.1139656901
-0.07704631984
-0.1654587835
-0.09925241023
0.1138768196
-0.4793858528
0.04294573143
-0.4584153593
-0.05713830143
0.007382737007
-0.3018890023
-0.2760026455
-0.03702468798
-0.2535097599
0.00632179575
-0.07827657461
-0.415922761
-0.03755660355
0.1896365434
-0.2171385586
-0.4280095994
0.01928632706
-0.3425272405
0.4021890759
-0.1676267982
-0.03609279171
-0.1101064086
0.0498912707
-0.301004082
-0.3192793429
-0.3721007109
-0.0471415706
0.100182645
0.06575926393
-0.3542054892
-0.5184277296
0.08821410686
-0.0559797734
-0.406021148
-0.2202942669
-0.311257422
0.1295900345
-0.1592993438
0.5397680402
-0.3102359772
-0.1815227866
-0.2319339812
-0.3045884669
-0.3109600842
0.1699100584
0.1472035348
-0.2195563465
-0.3976785839
-0.2130614221
0.06264656782
-0.3782993257
0.2067648172
-0.2411344349
0.20892483
0.2351591438
-0.06399073452
-0.2415699363
-0.3222566545
0.008170418441
-0.4478812516
-0.2853972614
0.1880843043
-0.3949537873
-0.507386744
0.03059320897
0.08918625116
0.0160761904
-0.2209713161
0.2195834816
-0.3541713953
-0.2180036902
-0.1516690701
-0.1262589842
-0.1645385176
0.1976461112
-0.4291142523
0.1237892956
-0.07617182285
-0.09011762589
-0.3914882243
-0.01895627938
-0.4082709253
-0.08513169736
0.2116806507
-0.3023146093
-0.317640543
-0.3566577137
-0.1163891554
-0.3824011385
-0.3204086125
-0.2479395866
0.2513595819
-0.5116019845
-0.4286034703
-0.2162929475
-0.1221328303
0.07863494009
0.1554473341
-0.3679953814
-0.2806305885
-0.552048564
-0.1686473489
-0.03537440673
-0.01497543883
-0.2066279203
-0.2267271876
-0.3461031616
-0.1466121674
-0.4132341146
-0.586194396
0.3016737401
-0.4298371375
-0.336291939
-0.3472953141
-0.2929021418
-0.3350103796
-0.1701359898
0.1452779919
-0.09198689461
0.02747037075
-0.3338567317
-0.4046037495
-0.09057904035
-0.1686297506
-0.6064676642
-0.2548356354
-0.3793507218
-0.3497593701
-0.09504327178
-0.2448273152
-0.07661750913
-0.2381049991
0.1115287393
-0.2773007751
-0.4783777297
-0.4109956622
0.01470635924
-0.4749392271
-0.06425331533
0.02688954584
-0.2699507773
0.1137532294
-0.1708941609
-0.3864598572
-0.01299143955
-0.5722139478
-0.3216643035
-0.3207343221
-0.3466498852
-0.4851738513
-0.1772859097
-0.3734300137
-0.3601841927
-0.0641644448
-0.6406840086
-0.03728426993
-0.4210882783
0.07153381407
-0.2891712785
-0.1512438357
0.04742057994
-0.3405936658
-0.166029498
-0.2617327869
-0.5380662084
-0.5115767121
0.04062758386
-0.3472647369
0.0351992622
-0.09862940013
0.1207696646
0.00627942523
-0.1041086018
-0.1653411984
-0.3192357421
-0.3577871621
0.009702782147
-0.6960070729
-0.3375537395
-0.5463756323
-0.3978325129
-0.2057280689
-0.09823112935
-0.3479600847
-0.6249190569
0.1460481137
-0.2974023819
-0.3379100263
0.1026381925
-0.1927447021
-0.41561988
-0.4764935374
-0.1725627333
-0.2337228805
-0.1426222771
-0.1449007839
-0.2347183526
-0.2064892501
-0.08828497678
-0.3925323188
-0.3490229249
-0.02178596705
-0.2968663573
-0.3334132135
1.491436601
-0.124683544
-0.426576972
-0.1529931277
-0.3692460954
-0.1806378961
-0.0309501607
-0.1198066175
0.2096777856
-0.2418082356
-0.02231353335
-0.4091416597
-0.3731646836
-0.331935823
-0.411141932
0.009006001055
-0.1805925965
-0.0001109522491
-0.2539407909
-0.04592725262
-0.2545117736
-0.04385567829
0.01382797118
0.1001892611
-0.2905645967
0.2069063187
-0.3960872889
-0.2055336833
-0.185943976
-0.2490159571
-0.1644019932
-0.05699503049
0.08320795745
-0.06411279738
-0.3886215389
-0.4322055876
-0.5529798269
-0.04543884471
-0.1866318285
-0.1645227522
-0.03061907366
-0.3601101935
-0.2922314405
-0.00280593778
-0.01056290977
-0.4783245027
-0.1210317537
-0.1474356353
-0.07789065689
-0.4267747104
-0.2351056635
-0.038816154
0.1617830992
-0.3392599821
-0.2629083395
0.2148074657
-0.0826369971
-0.1067232713
-0.5578048825
0.03340440243
-0.1875445545
-0.04625127465
-0.2282188982
-0.1094159931
-0.09927871823
-0.3616548479
-0.08165472001
-0.3000373542
-0.01734484546
-0.4836823344
-0.378991574
-0.3915196657
-0.1316777021
-0.2790119052
-0.1824979037
-0.5902919173
0.1394597739
-0.1549478769
-0.3405075371
-0.09596261382
-0.368904233
-0.7573122978
-0.3525384068
-0.05902972072
-0.001208897214
-0.4971210659
-0.5415735841
-0.60321033
-0.07765136659
-0.3783293068
-0.3513293564
-0.05390917882
-0.3228019774
-0.1312170029
0.01854562201
-0.005870015826
0.3604754508
-0.4914137721
-0.3698545992
-0.2030230463
-0.1092807278
-0.1394310743
-0.1950630397
-0.1053290293
-0.4827814996
-0.01701331884
-0.1367306709
-0.1838938594
-0.487282306
-0.1474190801
-0.3530141413
0.02001651935
0.08132252097
-0.7132306695
-0.3485552669
0.4679736197
0.1150614396
-0.0644826442
-0.1112729907
-0.02192502096
-0.2149577886
0.03376011923
-0.4007367492
0.4259903729
0.03998247162
-0.3276361823
-0.1279179454
0.1788267493
0.02997469343
-0.3332027197
-0.1768256426
-0.2865977883
-0.4865672886
-0.6288318634
0.1528981179
-0.1992118061
-0.3918420374
0.1277304292
-0.2625664771
-0.5733950138
-0.04465465248
-0.3621503115
-0.3002603054
0.2249814868
-0.1580477208
0.001316297217
-0.2616461813
-0.07600675523
-0.02009701915
-0.3999021053
-0.131320253
-0.3713086545
-0.520336628
-0.2219713181
-0.13796179
-0.245326668
0.4112416804
-0.456700325
-0.1402999461
-0.2064032108
-0.03126624227
-0.175533846
-0.2440309525
-0.381298095
0.02600516565
-0.3964071572
-0.4991775155
-0.8193577528
-0.4449167252
-0.4316104054
-0.5528936386
0.3055894673
-0.2284188122
0.1147606671
-0.5422378182
-0.1103433371
-0.3775545955
-0.07452622801
-0.3208836615
0.1018294767
-0.09302414954
-0.4318889976
-0.1429710388
0.00590527989
-0.1700444967
-0.3980485201
-0.2302293479
-0.3708924055
-0.2395556718
-0.2853818834
-0.02511320449
0.1948784292
-0.3167348504
1.170996666
0.8165701628
1.545865178
1.138800144
0.686578989
1.287007928
0.7889330387
0.8535935879
0.5637651682
1.177489519
0.9469073415
0.901630044
0.7115444541
1.187448978
0.985698998
1.414015651
0.7430105209
0.8110889792
0.9043927789
0.9628973007
1.053953648
0.9437064528
0.9423886538
0.8082253337
0.7494028211
0.9149116874
0.6342964172
1.082334638
0.8837490082
1.512614965
0.9431495667
0.6837167144
1.115679979
0.8938755989
0.8122612238
1.216900349
1.256540537
0.8160148263
0.8517423272
1.358910441
1.34025085
0.7573987842
0.8528249264
0.5222368836
1.009766698
1.014400959
0.5598837137
1.74735713
1.009097576
1.054073334
0.9495316744
1.060053587
1.012982011
1.335623384
0.8048250079
1.089635253
0.7977258563
0.9569426775
1.010075092
1.522792935
0.9543028474
0.9759609699
0.9583728313
1.064708233
1.179005265
0.9375607967
0.8384081721
0.8416840434
0.8134592772
0.8006595969
1.163393021
0.8344811201
0.9440011382
0.9947741032
0.9004271626
0.7837195396
1.265987396
1.03910017
1.034610868
1.125609756
0.8743315339
1.206320643
0.7435706258
1.100930214
0.8986991644
0.9580134749
0.7311558127
1.063676715
1.056030273
1.269508719
0.7958446145
1.03219533
0.8732759953
0.9665905833
1.081700563
0.6887686849
1.122100115
1.14268887
1.170635462
1.332449794
1.088777542
0.8386899233
0.7308503389
0.8118268847
1.051514626
0.9965738654
1.399236202
0.9264467955
0.6718328595
1.000973582
0.9301140308
0.9980717301
0.9442949891
1.103304505
1.27039063
0.9416245222
0.7897284031
0.474280715
1.125509501
0.8122561574
0.6732954979
0.6651912928
0.8069518805
0.7417398095
0.7972567081
1.008514881
1.069060922
1.085584879
1.542589068
1.238330126
1.083080649
1.222926855
1.136271715
0.9045803547
1.066001058
0.8828164339
1.04884243
1.260175705
0.6071351171
1.077108622
1.152622819
0.971429944
0.8095710874
0.691500783
1.237067819
1.44527626
0.7731847167
0.8171161413
1.004773736
0.969440639
0.9005368352
1.05206871
1.149480104
0.881970644
0.9726749659
0.8274695873
0.8578359485
1.245148063
1.12330842
1.131850839
1.097079515
0.9141782522
1.324247479
0.5088259578
1.050472736
1.434840679
1.119368911
1.190037251
1.146371245
1.015061021
0.6616191864
0.866746664
0.6101658344
0.6119533181
0.8907430768
0.9779939055
0.9352160692
1.367168903
0.9019332528
1.033133268
0.7347303033
1.11817646
0.9897911549
1.467038393
0.7250256538
0.9083055854
0.7896337509
1.153909683
1.027729034
0.9332707524
0.9059945941
0.8423745036
0.8521499634
0.8365033865
0.9208323956
1.384818316
1.161129832
1.476692557
1.102503181
1.36634922
0.7063672543
1.349110842
1.233763099
1.106633544
0.916252315
0.8583347797
0.8950786591
0.8351105452
1.402241468
1.212171555
1.105481386
0.8871577382
0.8188457489
0.676374197
0.8548072577
0.8735625148
1.289613128
0.8928459287
0.9348635674
0.7146205306
0.8048031926
0.7154765129
0.8205305934
1.208185196
0.9749345779
1.09376204
0.8828009963
1.07202816
1.053535819
0.9596821666
0.8894361854
1.349069238
0.9618788362
1.045822024
0.9479660392
1.058230042
0.7945728898
0.6844826937
0.9969235659
1.515927196
0.9273774624
0.951798141
1.242001653
1.03109026
0.7533324361
1.258319259
1.067868471
1.128562808
0.6557908654
0.9245346785
0.8503916264
1.155910015
1.143078089
0.9134143591
1.102321744
1.019854665
0.9278175831
0.9056657553
1.009377837
1.326976776
2.506197691
1.439650297
0.9727845192
0.8360857964
1.080298662
1.174648166
0.9605634809
0.8392794132
0.8954613805
0.7891255617
0.8063567877
0.7151243687
0.8330675364
0.9402116537
1.500316143
1.177324414
0.9144809246
0.9386970401
0.818107605
1.205752134
0.7175549269
1.227425814
1.205805182
1.413969398
0.9426398873
0.9526324272
1.01143837
1.557503223
1.29904604
0.9021785259
0.8530080914
0.9096672535
0.9626514912
0.7399513721
0.8432902098
0.8509181142
0.8297473788
1.054365873
1.046915531
0.7912680507
0.889242053
1.308530569
0.8336296678
1.028510094
0.7767753005
0.7704836726
1.279484272
0.9555643201
2.604509115
1.520493031
1.318297982
1.132279277
1.206820965
0.857194066
0.9830285311
1.130849481
0.9655787945
0.8965445757
0.8889516592
0.8422600627
0.7646511197
0.7359431982
0.6284073591
0.8537643552
0.786754787
1.021237254
1.085788131
0.6360800862
1.102625847
0.8229857087
0.9252388477
1.250414133
1.607807159
1.367256284
0.8977226019
1.057808042
0.7610561252
1.053904295
0.7597917318
1.043355942
0.8993631601
0.7897753119
0.6711230278
0.7147331834
1.213578939
0.8357539773
0.5568910837
0.9655840993
0.6572719812
1.725679755
0.8799569607
0.8877554536
0.761534512
1.045451403
1.081058025
0.920592308
0.935177803
0.9533725977
0.970757544
2.217345238
1.069143057
0.8815009594
1.277291894
1.577282429
0.801238656
0.880405426
0.7729008794
0.9979766607
0.6907499433
1.026626229
0.7000404
1.070195436
0.9101262689
1.010539412
1.02444005
0.7542698979
0.8320232034
0.8082333803
1.263471365
0.8760501146
1.28608644
1.13846314
1.055130243
0.886592865
1.399875164
1.5735116
1.052459717
0.7049835324
1.396398067
0.9597249627
0.6877730489
0.9733678699
1.271578789
1.036174297
1.075065494
1.160806775
0.7311953306
0.9447165728
0.9584627748
0.8964176178
1.026510596
0.9845435619
1.040172219
0.9479580522
0.8858329058
1.218551636
1.052496552
0.7942520976
0.8952254653
0.7660733461
0.8609244823
0.8206192851
0.7166110277
0.6731145978
1.037333727
1.205669165
0.8681791425
0.9738141298
0.8624834418
1.189719915
0.9441158175
1.339539766
1.006919861
1.020353675
1.06131804
0.8875900507
1.582575083
1.665053844
1.099097013
1.041659951
1.517674685
1.500161529
1.172785759
1.722140908
0.9447826743
1.26299262
0.8109371662
1.044793606
0.7473617196
1.300605297
1.478755593
1.22463131
1.233571768
1.193092465
0.9905376434
0.9265429974
1.361198664
0.9336931705
0.9973016381
0.9524928331
0.6748784781
1.089000106
1.161945343
1.190560699
1.238314748
1.000681162
1.123351693
0.7927482724
1.33321476
0.8158122897
0.8565365672
0.9452082515
1.068965793
0.6402388811
0.9145426154
0.6485671401
0.8665134907
0.9488785863
1.021030188
0.9529264569
1.103324056
0.9608426094
0.8480179906
0.9501323104
0.8800219893
1.099449396
0.8176416159
0.7759062052
1.035827518
1.275545001
0.8958670497
0.6407120228
0.7842609286
0.7237536907
0.719476223
0.9159320593
0.8162068129
0.9334001541
1.509857416
1.095089078
0.8991090059
1.097496271
0.9398073554
1.060739994
1.422856092
0.681681335
0.8402546644
0.9450055361
1.071739554
0.8535901904
0.8551579118
1.174463034
0.941174686
1.166374564
0.8436982036
0.8537493348
0.8946331739
1.339107633
1.167485237
1.217530608
0.9381511807
1.189546943
1.947303295
0.7911227345
0.9131469727
0.773552835
1.092263341
1.422934771
1.03234911
0.8294622302
0.7593177557
0.6726540923
0.8910393715
1.366986156
1.154017329
0.7136040926
1.07364285
1.195591331
0.7550599575
0.9168673158
1.248651981
0.7027619481
0.7488701344
0.7018735409
1.218784213
0.8176828623
0.9584504366
0.9701136351
0.7211020589
1.252960563
0.7210986614
0.8246421814
0.8865209818
0.7862703204
0.861425519
1.123000026
1.303747773
0.869256556
0.9958345294
1.099777222
1.116576195
1.073785543
1.014101267
0.7290440202
0.9791779518
0.6754703522
1.193273544
1.100039721
1.249391913
0.7272168398
1.0046736
0.9099389315
0.6175615191
1.174885631
1.06964016
1.576490879
1.021953821
1.219283104
1.124891043
0.6321604252
1.357194304
0.6786378026
1.237845063
1.388214827
0.9282791615
0.7353589535
0.9163129926
0.6925529838
1.307854295
0.9841527343
0.7835835218
0.7256473303
0.9148364663
0.9462265372
1.224127769
1.232416749
1.007936716
0.8379565477
1.207692742
0.7549650073
1.046728611
1.369750261
1.191122174
0.9605587125
0.8681627512
0.8735655546
0.8909528852
1.203452826
0.9620745778
0.8355897665
1.177094579
0.9334558249
1.05113101
0.9714841247
1.379341364
0.8654756546
1.357082367
1.347742319
1.048386216
0.7524576783
0.6119957566
1.041727066
0.8547914028
1.463620901
0.868974328
0.6614049673
0.9726493359
1.145495176
0.6696984768
1.029815316
1.032155991
0.760709703
0.8219924569
0.9302845001
0.6930359006
1.336785793
0.9517387748
0.9215831161
0.8646520972
0.7970004678
1.291067243
0.9125564098
0.9814941287
0.7855296731
1.342505217
1.297927737
1.071147799
0.9250068069
0.90668118
1.098063111
0.9226459861
1.203023791
1.051062942
0.7661318183
0.7713329792
1.104299307
0.7266532183
1.058241963
1.063385367
0.9937154055
1.196905732
1.01038754
0.833800137
0.9340218306
0.4724085033
0.8370469213
0.7625544071
1.404554486
0.889218092
0.7404233813
1.166434288
0.6871304512
1.333061695
0.7563890219
0.6780927181
1.342121005
0.9942868352
0.9657019377
0.8792945743
0.6934661269
1.224596858
0.8129889369
0.829171896
0.8898835778
0.84341079
1.048980713
0.7525582314
1.072132349
1.096089482
1.64279604
1.548446059
1.071458459
0.7476391196
1.035039663
0.6746906638
1.037787437
0.7043351531
1.128350735
0.8646442294
1.029109836
0.9143537879
0.8109111786
0.6838462949
0.7217535377
1.325662374
0.9519171715
0.6676014066
0.4365874529
0.9233978391
0.8455946445
0.8620147705
0.9051439762
1.067708373
0.9771060944
0.7116463184
1.278928638
0.9240605235
1.125559568
1.016322136
0.9962056875
0.8327196836
0.874737978
1.296602726
0.8943318725
1.016903758
0.7847685814
1.250689149
1.393922806
1.091875911
1.210656762
1.061432242
1.261428595
0.9767816067
1.150674462
0.8443353772
1.056300163
0.8392833471
0.7910676599
1.279932857
0.8798351288
0.6565161943
0.9388369918
0.9402567148
1.243959427
1.294406176
1.554520726
1.133359075
0.6488138437
0.7966169119
0.6868633032
1.239777684
1.259594321
0.9906560183
0.7781236768
0.996501565
0.9357433915
0.8857197762
1.032966971
1.644463897
1.060474157
0.7691124678
1.245054364
0.830780983
0.9424243569
1.180407166
1.298385978
0.8456559777
1.389761448
1.042109013
0.7698806524
0.7531252503
0.8655405045
1.121792436
1.049974561
0.9268049598
0.7583479285
0.7252805233
1.11624825
1.00167191
1.007822394
0.9001401067
1.147468805
1.276010752
0.7815787196
0.9726689458
1.383141994
0.6453975439
1.00767386
0.6953783631
0.941640377
0.8831415176
1.124649525
0.88032341
1.192572117
0.8292381763
0.6456671357
0.884008646
0.6861049533
0.9500619769
0.7385758162
0.8332563639
1.265246511
1.193908095
1.230584264
1.274207711
1.242234588
0.7857874036
0.5870473385
0.8541707397
0.8163071871
1.437554479
0.7949227095
1.265742064
1.551579237
1.055548906
1.32439971
1.853970766
1.13571763
0.7192035317
1.315174341
1.193249345
0.9295688272
0.8727148175
0.9354983568
0.7907427549
0.8844431639
0.9889409542
1.206305861
0.8258972764
0.7503428459
1.16002202
0.9074193239
1.394439578
1.558835149
0.9328894615
1.146207571
0.6774862409
0.9521033168
1.189681292
1.180277824
1.008241653
6.048863888
0.9477427602
1.358159423
0.7776058316
0.7898737788
0.7772004008
0.8802453876
0.7685660124
0.825812161
0.8654265404
1.172552466
0.9908485413
0.994050324
0.7488534451
0.6262037754
1.043267131
0.9464033842
1.087550402
0.867130518
1.040642977
1.112855554
0.8290113807
0.705653131
0.9211160541
1.177789092
1.291060805
1.238502383
1.167380333
0.806599915
1.220493197
1.062419057
1.093906403
1.134759545
0.9644616246
0.6919806004
0.9236758947
1.024816751
0.8931462169
0.9003324509
0.9421697855
1.137308955
0.8272408843
0.7070369124
1.083630919
0.920371294
1.005575418
0.9282451272
0.6977528334
0.7964293957
0.876871109
1.099696398
1.1409446
0.8113483191
0.5394406915
1.021069288
0.8927226067
1.462715864
1.00970757
1.408066154
1.455335021
0.8128897548
1.149537563
0.795583427
0.9956578016
1.011045456
0.9014769197
0.9162179232
0.7513949275
1.028752685
1.009064555
1.201950669
1.301533818
0.8829770088
0.9732577801
1.202471495
1.743415236
1.084056258
1.022879124
1.220821977
1.27260232
1.005017638
1.105194449
0.8937692642
1.244536519
0.8561753035
0.81332165
0.9245935678
1.062553525
1.11732769
1.010476708
1.141916037
1.175210714
1.329780221
1.35351634
0.8240048885
0.9959076047
1.545693398
1.007482409
0.8599590659
0.916148603
1.043018579
1.052866697
1.226217747
1.186527491
1.130241871
1.30675447
0.872266829
0.9236916304
1.292387962
0.7635301352
1.100358129
1.089566588
0.7910147905
1.231721759
1.458196044
1.181944728
0.998306632
1.143533945
0.9885858297
0.9208952785
0.972492516
0.4721318185
0.9970581532
1.234306455
0.9283149242
1.101345301
0.910277009
1.294112682
1.199880362
1.075827956
1.227282524
1.41800189
0.9145660996
0.9309554696
1.127345681
1.179952621
0.843206048
1.143761396
1.087399483
0.9850975275
1.228337646
0.7735926509
0.9520888925
0.9425058961
0.7446144223
1.082658052
0.8503267765
1.047543526
1.465874076
1.175428629
0.9862572551
0.8805032372
1.043979764
0.9207465649
1.18570447
1.099351287
1.112088919
0.7744448185
1.010049224
0.7571033835
1.214296579
0.5443895459
1.038364172
0.63576895
0.5810531974
0.9740201235
1.44348824
1.537962079
0.7514518499
1.827811956
1.734728694
0.7875920534
0.9987843037
1.034490228
0.8143588305
0.6449258327
0.8091366291
0.8720651269
0.6913109422
1.54739058
1.066571116
0.6458921432
1.271406889
0.822078824
0.901350379
1.407135606
0.9532598257
1.116359115
1.376187563
1.25240612
0.9119855165
1.28118217
0.6477096081
5.754726887
4.17996645
5.114075184
4.257877827
4.187675476
4.302201748
4.183437347
5.409190178
4.721560955
4.376372814
3.957854271
3.867702484
3.99890399
4.479699135
3.860545397
5.719919205
3.865472078
3.798984766
4.365421295
4.201771736
5.295259953
3.906233311
4.344551563
3.953612328
4.843176842
4.433579922
4.187886715
4.559813499
3.942988396
4.461268425
4.008690834
3.455840826
5.732943058
3.931654215
6.141103745
4.909202099
6.287053108
4.154185772
4.06052494
4.358368874
5.1984272
5.170053959
4.661607742
3.773454428
6.098073006
5.269428253
3.978413105
4.34870863
5.184569359
3.493170261
5.645670414
4.947730064
4.632929325
4.375545502
4.1832304
4.556419373
5.807760239
4.170988083
4.861577034
5.675554276
4.734185219
3.718634129
5.078843594
4.267540932
4.588327408
4.67667675
4.012582779
3.712749481
3.511060238
4.785560131
5.091720581
3.858509302
3.726078272
5.341101646
4.270514965
5.405373573
4.26874733
5.203395844
4.605584145
4.749556541
4.389788628
5.363862991
4.683289528
4.036050797
3.889094353
6.175821781
3.637081861
5.029361725
4.043833256
5.162169456
4.017574787
3.661754608
5.843570709
5.992209435
5.070479393
3.975809097
5.283132553
3.701971292
5.002140045
4.845292091
3.969305515
4.773239613
3.868904352
5.131187916
3.309926987
4.465852737
4.525464535
3.838556767
3.688850641
3.556283236
3.708419085
5.458538532
6.320601463
3.977064371
5.65950346
5.944241524
4.625460148
4.469949722
5.862085342
4.355597973
3.860603571
3.224568129
4.376265049
4.442285538
4.251078129
5.858561039
6.09064436
4.849897385
4.660931587
4.317937851
4.214313507
5.664441109
6.243453026
5.407055855
4.681107521
3.865053177
4.36276722
3.973746777
3.578723907
5.319703102
5.266252518
3.790665865
4.493573189
4.539432526
6.152035236
4.332725525
4.021780491
4.559463978
5.20450592
4.696479797
5.010216713
4.305346489
6.053982258
4.771434784
5.550329685
4.23537302
4.114599705
5.874185562
4.816158295
6.590133667
5.829395294
4.113703728
5.18358326
5.207377911
3.925318718
6.117490292
4.945640087
4.829967499
3.747549295
4.476713181
4.833057404
4.130205154
4.375039101
4.716321468
4.153591156
4.036514759
3.857518435
5.540003777
4.167000294
3.680185795
3.721146107
4.649291039
3.670389175
4.591804504
3.108078718
4.898768425
3.470159054
6.262934208
6.008040428
4.422381401
4.816475868
3.951701641
4.995696545
3.691337109
4.529035568
5.443677902
5.140011311
6.028056145
5.178040981
5.81700325
3.777933121
5.56313324
5.874709129
4.620256901
3.984584808
5.103641987
4.086073875
4.326220989
5.222183228
4.388202667
5.028216362
4.264840126
4.361800671
3.683247566
4.327440262
4.541602612
4.11803627
4.231618881
4.008770466
3.815972805
3.830555439
4.615633011
6.829190254
5.528517723
5.498391151
5.306658268
4.55133152
5.058084965
4.313480377
5.133759975
3.841862917
6.343747139
6.160939693
4.81977272
4.405016899
5.348433971
4.239069939
3.263319016
4.965141296
5.54523468
4.237632751
4.818892479
5.546120167
3.902621746
4.130785465
6.071826458
3.855785608
4.576634884
4.197482109
4.025898933
3.922797441
3.372970343
3.920944452
4.230677128
6.196930885
5.439252377
4.767381668
3.484153986
5.099096298
5.950496674
3.735121965
5.042690754
6.1582551
3.4601686
4.551819801
4.526843071
4.931557178
4.624615192
3.792995453
3.803091288
3.714384079
5.329459667
4.247862339
4.556473732
5.526948929
5.794631004
4.051399708
3.628820896
4.267689705
5.245400429
4.672216415
5.122636318
3.863364935
5.984673977
4.160845757
4.983128548
3.78418684
5.271494865
5.448344707
3.949733257
4.477358818
4.010417938
3.820747137
4.320395947
4.055013657
4.827992439
4.221260548
5.398942947
4.4522295
4.132080555
4.689212322
5.691910744
5.303549767
4.506186485
3.89508009
4.404286385
5.073043823
5.307156563
4.12147522
5.069849014
4.182924747
5.025043011
5.078717232
4.650012016
4.315785885
5.321052074
5.211007118
5.056013584
5.006712914
4.001700878
3.771669865
4.628279686
4.1942873
3.81639719
3.904052258
4.051077843
4.553015232
4.08874464
5.265781403
3.637250662
4.033205032
5.235629082
4.094974518
5.843801498
3.851967096
4.216241837
4.106925011
5.758540154
4.978311062
5.010111809
5.869361877
4.118653297
4.400084972
4.140865326
4.138476372
4.091285706
3.074278116
4.548803806
3.620847702
5.593160629
3.955202341
4.118122101
3.911051989
4.916689396
5.910525322
5.471272945
5.715727329
4.470253944
5.032804489
5.355028629
4.203374386
4.682991982
4.144767284
6.243936539
4.205449104
7.803379059
4.542224884
3.765439987
4.468779564
4.491526604
4.255869865
3.814696312
5.981379509
4.631642818
4.439743042
4.175066948
5.684111595
3.35263896
5.036221504
4.132990837
4.52729845
5.315660954
5.447033882
5.099431992
4.761891842
3.61390686
4.123457909
4.001276016
5.335121155
4.770337105
5.227065086
4.381839275
6.040771484
4.171310425
4.390604496
5.436994076
4.318911076
5.525013924
3.903481483
5.10203886
4.132448673
5.629982948
3.973612547
4.797941685
3.946392775
5.308103561
4.686882019
4.560391903
4.454481602
5.93682003
4.279216766
4.121502876
4.452637672
4.167902946
4.578098774
7.69286871
4.915360451
5.937784195
4.052956104
5.412589073
5.233578682
4.342876434
5.424721241
4.846268177
4.609066963
4.306087494
5.225897789
4.813103676
5.997652531
4.541978836
5.262928009
3.931307554
3.820254803
4.744748116
5.412542343
5.55524826
3.801757336
4.189561844
4.366378784
4.600959778
4.990651131
4.553799629
5.504733562
5.611889839
5.61877346
4.034677982
4.279297352
4.951723576
5.060131073
4.079301357
3.890438318
5.720816612
5.45823431
4.357162476
4.968901634
5.357027054
5.267968178
3.881152868
5.114085674
3.549778461
4.655275345
4.228518486
5.267404556
3.698680878
3.966438532
3.679787159
3.765986443
4.651082516
4.327349186
5.133182526
3.746571302
3.732809067
4.213823795
5.251190186
4.000054359
5.349933624
4.028116703
4.327338696
4.271536827
5.685549259
5.739172459
3.816310644
4.980680466
5.469817638
3.504896879
4.325425148
4.244978905
5.80642271
4.484834194
6.486593246
4.943273067
5.735619545
5.262407303
5.563656807
4.909052849
4.934211254
4.017564297
6.048132896
4.340101242
4.315861702
3.688667297
5.204029083
3.910087347
5.176197529
4.936988831
4.184085846
4.470036507
4.948685646
5.012004375
4.967096329
5.971165657
5.510802269
6.918538094
3.586355925
4.10108614
4.034408092
5.344283104
4.832231522
4.745838165
3.805653334
4.345985889
3.730744123
5.146546364
4.686075687
5.376865387
4.331056118
4.495496273
4.011265755
3.755542517
4.649087429
4.277567387
4.397416592
3.514708519
3.697742701
6.584174633
4.174695969
4.935270309
4.504482746
4.296609879
4.13579607
4.424695492
4.326097488
4.772295952
4.088840008
4.08039093
4.44399786
6.385836124
5.208668232
4.632073879
3.593635082
3.541130066
4.792992115
3.600374699
3.746726274
5.459314346
3.387154579
4.993956089
4.250872612
5.757842541
3.810402393
4.729892731
4.002759933
5.440926552
4.761683941
3.998131514
5.53587389
3.677841663
4.849289894
3.817997932
4.339053631
5.575182915
4.163496494
5.250981331
4.352976799
3.801597118
4.35336113
4.899604797
4.358084202
5.495369911
6.009537697
3.853372335
5.007191181
4.459454536
4.323795319
4.518065929
5.649734497
4.942737103
3.935069323
5.831306934
3.958580732
5.599844456
5.459913254
4.925643444
4.107056618
3.910301447
3.905013323
4.179968834
5.025618553
4.559321404
4.993762493
5.706832409
4.932990551
4.39511919
4.975973606
5.177885056
4.278009892
6.238471985
5.938322067
3.81441164
3.834561825
3.350966215
3.817561865
3.899361134
5.548537731
5.234406471
4.918337822
4.424341202
5.847300529
5.087694168
3.936275244
4.492046833
4.663314819
5.386227131
5.868091583
3.453457355
4.546011925
4.246903896
3.596980333
4.316443443
3.956436396
4.96723175
5.46630621
4.23250246
4.302369595
5.137316704
4.28589201
4.813614845
3.971001625
3.812505484
4.144202709
3.853611708
4.798035145
6.466112614
5.735022068
5.058932781
4.08450222
3.685269356
7.365816116
4.817399025
5.817977905
5.122575283
4.6513381
5.053030491
3.86798811
3.314981461
3.86463356
5.847652435
4.924491882
4.021542549
4.491897583
5.979336262
3.883203983
6.004957199
4.030983448
4.388094902
5.614355087
3.867349625
3.979766846
4.592142582
4.795349598
5.161313057
3.645666599
3.587158442
4.663597107
5.254792213
4.456142902
3.594430447
6.097236633
5.148863792
5.864972115
5.063970089
3.581039429
3.730067492
4.787873745
4.661969662
3.58925581
4.125639915
5.946591377
4.116722107
5.16318512
3.440645456
3.35371542
3.830527544
3.874241829
4.320192814
3.85662055
3.932822227
3.957863331
4.450682163
3.947285414
4.364738464
3.985411644
5.79639101
4.346312523
4.209303856
4.434504986
5.383810997
4.499587536
4.509411812
4.882286072
4.094706059
4.189640999
4.994358063
4.114563942
4.536252022
4.419528008
4.485789776
5.250569344
4.683915138
3.933645964
5.053949356
4.114831924
4.431862354
4.232005119
4.242751598
4.165177822
3.682661057
4.070371628
6.578182697
4.408521652
4.39345789
4.685035229
6.304167747
6.001362324
5.187808514
4.909825325
4.821947575
3.423428774
4.857438087
4.937973022
5.000715256
5.415655136
4.479877949
4.231100082
4.048028946
4.1112957
4.762507439
4.614965916
5.509950638
4.553555965
4.072723866
6.274616718
4.420775414
3.981368065
5.203902245
5.564319611
4.937835693
4.698372841
6.304477215
3.728972435
4.172209263
5.103580475
5.024745464
4.206072807
4.340057373
3.994452953
3.594020605
5.051684856
3.860304356
4.881716728
5.215852737
5.863660812
4.063941956
3.725395203
5.020064354
5.102828503
3.736041546
4.479344368
4.673930645
5.379009724
4.037115097
6.580368996
3.338032484
4.908244133
5.38720417
4.131495476
3.537236214
3.63618207
3.688791513
3.563278913
4.025790691
4.068194866
7.420676231
4.131379604
6.228013515
5.392749786
4.21232748
3.232807398
3.831212044
4.359003067
4.29164505
5.505177021
5.533810616
5.774316311
4.667634964
6.893527508
6.264381886
5.236660004
4.027428627
6.424438953
4.779735565
4.063480377
5.080293655
5.264315605
4.260444164
4.911762714
4.569353104
5.130424976
4.754209518
3.802122593
5.421195507
3.849241495
5.189507008
5.601728439
4.475119591
4.750517845
6.416666985
4.134694099
5.760430336
5.766226768
4.167387009
5.46143961
3.622559071
6.213383675
4.707037449
3.906339645
3.849342108
4.508043289
4.214784622
4.334716797
3.969072819
4.660271645
5.001573563
4.566578865
3.65698123
3.504315376
4.308960438
3.959016562
6.611233711
4.617872238
5.853804588
4.285004616
4.329741955
4.000154972
4.428112984
5.050422192
4.944823265
5.257128716
4.007059097
6.510125637
5.710234642
5.483645916
4.35882616
5.770923615
4.017856121
4.386149406
5.010582924
4.235447884
3.897322416
4.494253159
5.978902817
4.854431629
6.012631416
3.831350565
4.12715435
4.958269596
5.928360462
5.492500305
4.762695789
3.793858528
5.208003044
4.07890892
5.207790375
4.144307137
4.470583439
5.096843719
3.72048974
5.814535618
4.254091263
4.931981087
4.003954411
5.602838516
4.442412376
4.611490726
5.266919613
3.90999794
4.258265495
5.152822495
5.495864868
4.177983284
3.81220603
4.653816223
5.331787109
3.809609175
4.267957211
7.398616791
6.005299568
4.892456055
4.250630379
4.925711155
6.0031147
5.337807178
4.932395458
4.567363262
5.531092644
4.175333023
3.504253864
4.453110695
4.933524132
4.587601662
5.84624958
6.111755371
5.68815279
3.391963959
5.205435753
4.573646545
4.528979778
4.388914108
3.968212605
4.798683643
4.986589432
5.453310966
4.850587845
6.649006367
5.12804842
4.767800331
4.204119205
5.14184761
4.404351711
5.342941761
3.747800589
4.58091259
3.997677565
4.769241333
5.097299099
5.329686642
3.956794262
5.302519798
5.65924263
4.424265385
5.475741386
4.524856091
4.259803772
4.503754616
4.163105011
3.6883986
5.397170067
4.320745468
5.768153191
5.287014008
5.776965141
3.718164444
5.217593193
4.583013535
5.353173256
5.328989029
4.216923714
3.410500288
4.367161274
4.041646957
4.045066833
4.509969234
4.243787766
5.55220747
3.927301168
4.188182354
4.632694244
3.852325439
5.125155926
4.200788498
5.768683434
5.251228333
3.630273342
6.534095764
4.926386356
4.320081234
4.650184631
3.838251591
3.958203554
5.423079014
4.910470009
5.141922951
4.966508865
3.978723526
3.637624264
3.099919558
5.053017139
6.540818214
4.261900902
3.728408337
4.87882185
4.184880257
3.83041811
4.176758766
4.400438309
4.766747952
3.682646751
4.171802044
4.203926563
4.619776726
5.63345623
4.334168434
4.022017479
4.725441456
4.768503189
5.199722767
5.086623192
4.002473831
3.769237518
5.689723492
4.750863075
3.713261604
5.699577808
3.588318825
-3.991081238
-2.537517071
-3.584136963
-2.319514751
-2.413564205
-2.868803978
-2.504220486
-3.695210934
-3.062270641
-2.820173264
-2.367364407
-2.416260958
-2.580010653
-2.96847415
-2.374081135
-3.761614561
-2.242411613
-2.357409716
-2.414783239
-2.550575733
-3.999037266
-2.479827642
-2.165140152
-2.356887102
-3.184500933
-2.863804817
-2.929419041
-2.967998266
-2.586343765
-2.519167423
-2.369698286
-2.231027603
-4.209317684
-3.174493313
-4.360793114
-3.679598808
-4.429011345
-2.700230598
-2.926528215
-3.033454657
-3.516928911
-3.81567812
-3.230139971
-2.273475647
-4.206115246
-3.640111446
-2.184854984
-2.523574591
-3.841612339
-2.072718143
-3.935153484
-3.336617708
-2.992596626
-2.961386442
-2.793394089
-2.811783075
-4.471320152
-2.649857044
-3.111552238
-4.194440842
-3.281606197
-2.382442951
-3.381127119
-2.694666862
-2.984670877
-2.992147684
-2.381317854
-2.174301624
-2.055445433
-3.304071188
-3.407816172
-2.695818663
-2.317471743
-3.604249477
-2.932435989
-3.922363997
-2.945419788
-3.934609652
-2.652256012
-2.861035824
-2.964170456
-3.773242474
-3.365912437
-2.422711849
-2.508473635
-4.655917168
-2.368441343
-3.401126862
-2.238869667
-3.528180122
-2.506830454
-1.978635073
-4.007486343
-3.914329052
-3.414345741
-2.726864338
-3.641798496
-1.95481205
-3.270174503
-3.072668552
-2.235978127
-2.921091318
-2.299712181
-3.454974174
-2.072106838
-2.970122099
-2.861320972
-1.973065853
-2.547980785
-2.099219561
-2.431892872
-3.639163971
-4.238095284
-1.894548535
-4.00269413
-3.775127888
-3.037303925
-2.511172056
-4.248767853
-2.943665504
-2.118243694
-2.026156902
-2.71427536
-2.821444988
-2.486394882
-3.988144159
-4.227108479
-3.362642288
-3.020787477
-2.63800931
-2.586119413
-3.966467142
-4.323863983
-3.867357969
-3.121483803
-2.346833944
-2.701610327
-1.811427116
-2.232098341
-3.716006279
-3.388274193
-2.168799639
-3.375439405
-3.069212914
-4.433615685
-2.046606541
-2.329185963
-2.891865253
-3.695930481
-3.225344658
-3.479661703
-2.733612537
-4.126466274
-3.274037838
-3.810112715
-2.868204832
-2.619064808
-4.113828659
-3.293873072
-4.633313179
-4.121990204
-2.21778965
-3.36772871
-3.574446678
-2.467903376
-4.051520348
-3.23503828
-2.701126814
-2.313597679
-2.767977715
-3.069499016
-2.216516018
-2.459792376
-3.281641006
-2.182792187
-2.204699039
-2.633450031
-3.718316317
-2.391452789
-2.533687592
-2.075639486
-3.202774525
-1.696820617
-2.630413294
-2.048855543
-3.319252014
-2.422616959
-4.102160454
-4.170419216
-2.761519909
-3.189876318
-2.518675327
-3.559214115
-2.308053493
-2.976600647
-3.765367985
-3.24212122
-4.135495663
-3.5660429
-3.840114355
-2.049957037
-4.011286259
-4.129968643
-3.047533751
-2.285984039
-3.412249804
-2.595806122
-2.950186014
-3.290544033
-2.803204536
-3.104632854
-2.712039709
-2.919130325
-2.324085951
-2.917986393
-2.952298164
-3.178320646
-2.597116947
-2.582406998
-2.475919008
-2.407134056
-3.28581357
-4.956372261
-3.699388504
-3.830199957
-3.59640789
-2.898885012
-3.416145086
-2.740503073
-3.269192457
-2.296748877
-4.274302483
-4.509460926
-3.502789736
-2.992722511
-3.921424389
-2.802361012
-1.977417946
-3.113077164
-3.967764854
-2.716714621
-3.311323881
-3.871078491
-2.634576321
-2.59193778
-4.223863602
-2.230486393
-3.147382736
-2.525418758
-2.209283352
-2.388848066
-2.381415129
-2.103328705
-2.863884211
-4.324796677
-3.411860943
-3.557075024
-2.082522392
-3.656909704
-4.304945946
-2.556191921
-3.332316875
-4.403170586
-2.180868149
-2.867880583
-3.016476154
-3.51655674
-2.942905903
-2.438442945
-2.24481225
-2.629694223
-3.448816776
-2.660236597
-2.588565826
-3.80468154
-4.17000103
-2.474964142
-2.358139515
-3.089312077
-3.506001949
-3.309591293
-3.740927696
-2.109184742
-3.85819602
-2.393670559
-3.397270918
-2.105906487
-3.643235922
-3.723761082
-1.972662091
-3.074564695
-2.526782036
-2.143986225
-2.661392212
-2.437205076
-3.171442032
-2.81745863
-3.632220268
-2.997456074
-2.610602856
-3.072752953
-3.994146347
-3.931062222
-2.725214481
-2.385413408
-2.684882402
-3.649719238
-3.610612392
-2.660488129
-3.232193947
-2.699605227
-3.255185366
-3.497870922
-2.995870829
-2.755680799
-3.370872498
-3.568872929
-3.475361824
-3.432779789
-2.682486534
-2.098380566
-3.084310532
-2.70944953
-2.360266447
-2.386419058
-2.67565918
-2.680239916
-2.904552937
-3.478821039
-2.032535315
-2.397177696
-3.510382652
-2.897279978
-3.8159132
-2.160379887
-2.091974974
-2.759981155
-4.202587605
-3.420108795
-3.519492865
-3.734189272
-2.19156456
-2.717371941
-2.819496393
-2.668715477
-2.651570559
-1.876165509
-2.562080622
-2.239796638
-4.048501015
-2.312225819
-2.785787821
-2.315221071
-3.373956919
-4.413045883
-3.894942045
-4.001561165
-2.744508743
-3.392921925
-3.057748795
-2.397964716
-3.154250622
-2.63694644
-4.34583807
-2.717837095
-5.771284103
-3.070923328
-2.389352083
-2.891631603
-2.933064461
-2.999389887
-1.94500339
-4.301264763
-2.969943762
-2.899531364
-2.741424799
-3.739124775
-2.070710897
-3.345291615
-2.644258976
-3.085404396
-3.640378237
-4.040567398
-3.530943871
-3.121662378
-2.535757065
-2.454594612
-2.21600008
-3.619933605
-2.876709223
-3.992919445
-2.369989634
-4.3767066
-2.522990465
-2.809808731
-3.786660671
-3.059663296
-3.883673191
-2.797326565
-3.644974232
-2.399849176
-3.816941023
-2.193061352
-3.246618986
-2.379575729
-3.528344631
-2.952478647
-3.152015686
-2.943962097
-4.165535927
-2.532053232
-2.722254038
-3.274664402
-2.814282417
-3.161684036
-5.11664629
-3.208632469
-3.993583441
-2.462368011
-4.068916798
-3.534076929
-2.628046513
-3.701159477
-3.361705303
-2.943908453
-2.592545509
-3.348159552
-3.385044098
-4.476365089
-3.040036201
-3.117910624
-2.347978354
-2.589090109
-3.539652109
-3.467853785
-3.854575872
-2.307648897
-2.367167473
-2.937081099
-2.76805687
-3.04910183
-3.21943903
-3.702924728
-3.937455177
-3.95078826
-2.637205124
-2.936037779
-3.260578871
-3.34270668
-2.80450058
-2.413421631
-3.9172647
-3.591641665
-2.616559029
-3.321000099
-3.892035961
-3.126103878
-2.668263674
-3.475008488
-1.980581164
-2.998419523
-3.193048
-3.691229343
-2.367435217
-2.262262821
-2.124485016
-2.285021305
-3.069010973
-2.453194857
-2.982444286
-2.267237663
-2.251969337
-2.543363094
-3.575628996
-2.172566414
-3.476505995
-2.448046684
-2.725897312
-2.359275818
-4.030107498
-3.815589428
-2.250733614
-3.608952522
-4.017701149
-1.949772835
-2.575332642
-2.877771378
-4.187478542
-2.767371416
-4.971963882
-3.369277
-3.934157133
-3.908292532
-3.899769068
-3.171419382
-3.686910868
-2.128959179
-4.549668312
-2.336545706
-2.843958855
-2.342852354
-3.523427486
-2.66568327
-3.569259644
-3.471224308
-2.651047707
-3.23505497
-3.108205795
-3.396851778
-3.011647224
-4.251747608
-3.686843395
-4.171207428
-2.131808758
-2.631309509
-2.574055672
-3.460605145
-3.080080509
-3.050836802
-2.304955482
-2.781677246
-2.396103621
-3.473008394
-3.142226696
-3.558674097
-2.566692352
-3.281186342
-2.433345079
-2.154210806
-2.79046011
-2.809814453
-3.185408354
-2.172711372
-2.268761873
-4.883815289
-2.691201687
-3.200469971
-2.905160189
-2.673734426
-2.769134521
-2.995907068
-2.594665527
-3.136306524
-2.150621891
-2.450208664
-2.289171457
-4.212393284
-3.69863081
-2.95935297
-2.284852028
-2.205274343
-3.30651927
-2.140189648
-2.212537766
-3.807200909
-2.004232883
-3.255016565
-2.552645922
-3.681972742
-2.492288113
-3.078875303
-2.635618925
-3.982474327
-3.180017471
-2.102919579
-3.708733082
-2.077168703
-3.384088516
-2.139100075
-2.629442692
-3.823505402
-2.548784018
-3.423527479
-3.061253548
-2.499035835
-3.036125898
-3.37417841
-3.036896944
-3.732062817
-4.458042145
-2.439775944
-3.47807169
-2.746025324
-3.025203943
-3.264332771
-3.915302277
-3.356178761
-2.24068594
-4.410006523
-2.442683458
-3.941137791
-3.79531455
-3.424600124
-2.601704597
-2.152222872
-2.515103817
-2.539834499
-3.443413258
-2.880419254
-3.15842557
-3.69828558
-3.543216228
-2.839271545
-3.462443829
-3.32774353
-2.790133953
-4.317243099
-4.417672157
-2.544055223
-2.074500561
-2.087460756
-2.630126953
-2.409992218
-3.295730829
-3.722205162
-3.25117445
-2.947937965
-4.212973595
-3.436045885
-2.264643669
-3.173088312
-3.328037977
-3.663965225
-4.237350464
-1.911067843
-3.19311142
-2.731902599
-1.926749945
-2.785107851
-2.359533787
-3.060390472
-3.527380705
-2.405788183
-2.845268726
-3.333617687
-2.478007317
-3.240630627
-2.549338818
-2.494884253
-2.466849566
-2.321918011
-2.952431679
-4.667944431
-4.378820896
-3.808794498
-3.01175499
-2.187702179
-5.035214424
-2.408069372
-4.453547478
-3.428004742
-3.005024433
-3.404332161
-2.520443201
-2.196035862
-2.130712032
-4.238706589
-3.248080254
-2.085071564
-2.838180542
-4.225563049
-1.818873644
-4.171272278
-2.613285303
-2.849359274
-3.325542688
-2.861753225
-2.308039188
-2.900939465
-3.290488243
-3.472481489
-2.231868505
-2.236803055
-2.972391844
-3.308998108
-2.846757889
-2.084693193
-4.319811344
-3.514404774
-4.148399353
-3.341695547
-2.118549824
-2.388490915
-2.887357473
-2.966328621
-2.370447636
-2.534462929
-4.03747797
-2.878451109
-3.651220083
-2.050049543
-2.04691124
-2.773370743
-2.116062164
-2.479950905
-2.308565378
-2.419876814
-2.641932011
-2.538915634
-2.420036793
-2.78185153
-2.348346233
-4.294812202
-2.406126976
-2.608311892
-2.984908104
-3.828439474
-3.002562523
-2.909855604
-3.129272938
-2.42373991
-2.662948132
-3.160625935
-2.464221954
-2.708003759
-3.08133626
-2.822580576
-3.413458824
-2.992384672
-2.657867432
-3.44183445
-2.442799091
-2.978111744
-2.801176071
-2.948204994
-2.46269989
-1.967097521
-2.617389441
-4.026043892
-2.764739275
-2.903461218
-3.087842941
-4.552306175
-3.57862854
-3.299901962
-2.416889191
-3.280788898
-1.90594244
-3.219775438
-3.53591609
-3.434017658
-3.912294865
-2.78285265
-2.837340355
-2.566843033
-2.274803638
-3.050233126
-2.885409117
-3.922530174
-2.805015564
-2.192713737
-4.375085354
-2.515934229
-2.455243587
-3.207654953
-3.341127396
-3.438863516
-2.753945351
-4.677577972
-2.145834923
-2.732995272
-3.340032101
-3.520219088
-1.810575366
-2.690858126
-2.56307745
-1.953909159
-3.361892462
-2.526836872
-3.114667416
-3.560411692
-3.980703354
-2.561573267
-2.338808537
-3.48218298
-3.347232103
-2.201683044
-2.846694708
-2.989710808
-3.980286598
-2.648104668
-4.915440083
-2.092566967
-2.552523375
-3.637767553
-2.310022831
-2.43009901
-2.424049139
-2.069885492
-2.550286055
-2.32381916
-2.496259212
-5.266906261
-2.716803551
-4.454651833
-3.572480202
-2.68670702
-1.711945534
-2.470347881
-2.835506678
-2.779437065
-3.831000805
-4.072630405
-3.959893942
